#include "inference.h"

#include <fstream>
#include <stdint.h>
#include <cstring>
#include <algorithm>
#include <iostream>
#include <string>
#include <stdlib.h> 
#include <time.h> 
#include<stdio.h>

void inference_cpu(const float x[3072], float y[10]){

const float weight1[864] = {-0.22875596582889557,0.20448443293571472,0.31469255685806274,-0.19288434088230133,-0.13279631733894348,0.06801993399858475,-0.1221991628408432,0.002667555119842291,-0.05915367975831032,0.030058791860938072,-0.1720079481601715,-0.2778788208961487,0.3508646488189697,-0.22081610560417175,-0.2755756378173828,0.3570788502693176,0.012918664142489433,-0.13274383544921875,-0.046226270496845245,-0.2419203370809555,0.08172216266393661,0.28177595138549805,0.06500272452831268,-0.11722447723150253,-0.0315537229180336,0.21294471621513367,-0.12565161287784576,-0.05587601289153099,-0.0008260783506557345,-0.11483481526374817,-0.19648803770542145,0.04576772078871727,0.2373814433813095,-0.13431976735591888,0.28803011775016785,-0.12018535286188126,-0.1410924792289734,-0.1298026293516159,0.1560327708721161,0.0012164131039753556,0.13590285181999207,0.09451751410961151,0.1612936556339264,-0.028034429997205734,0.19803115725517273,0.021898316219449043,-0.13531486690044403,-0.11171645671129227,-0.16048428416252136,-0.010144581086933613,0.07965092360973358,-0.12189082056283951,0.07735773175954819,-0.1319144368171692,0.16226916015148163,-0.01466612983494997,-0.13428671658039093,0.20651115477085114,0.21919484436511993,-0.030162137001752853,0.07787252217531204,0.1774652749300003,-0.08859362453222275,0.04884830862283707,0.2306089550256729,-0.1828404814004898,-0.011673375964164734,0.03613147512078285,0.078923799097538,0.060443684458732605,-0.0011587454937398434,0.08520284295082092,0.2490471750497818,0.12821273505687714,-0.3308643698692322,-0.18223936855793,-0.06266042590141296,0.10403907299041748,-0.03565453737974167,-0.20099280774593353,0.03012801706790924,-0.07608190178871155,-0.004899127408862114,-0.14343734085559845,0.25074854493141174,0.318882018327713,0.2669719159603119,-0.23733492195606232,-0.18909618258476257,-0.16214753687381744,-0.04767845943570137,-0.3168933689594269,-0.2399759739637375,0.11735479533672333,-0.022080544382333755,0.1718897670507431,0.12360762804746628,0.10637161880731583,0.04101196676492691,-0.12581408023834229,-0.03502697870135307,0.06432849168777466,0.1409246176481247,0.20933718979358673,0.06165352091193199,-0.07953814417123795,-0.07776293903589249,-0.155263289809227,0.20983290672302246,0.12427307665348053,-0.17688603699207306,0.21349483728408813,0.17988237738609314,-0.03573468327522278,0.24205774068832397,0.2284354865550995,-0.12298230826854706,-0.42746028304100037,-0.22557155787944794,0.13826103508472443,-0.3098236322402954,-0.04810072481632233,-0.035091888159513474,-0.2836851179599762,-0.315238893032074,0.11746495217084885,0.08563067018985748,0.20312395691871643,0.12640324234962463,0.040923748165369034,-0.005826811771839857,0.10716118663549423,-0.05453269183635712,0.07728159427642822,0.03108726628124714,-0.081219382584095,-0.03660719841718674,-0.017755452543497086,0.2477763593196869,-0.07584986835718155,-0.19447284936904907,-0.045325566083192825,0.3111233115196228,-0.24175721406936646,-0.011363476514816284,0.03607405349612236,0.17118945717811584,0.03308577090501785,-0.030956942588090897,-0.0071732052601873875,-0.2003103345632553,0.22608256340026855,-0.011681056581437588,0.10829443484544754,-0.03542280197143555,-0.17399713397026062,0.06486776471138,0.10815585404634476,-0.21412017941474915,0.13347788155078888,0.2180313915014267,-0.29451608657836914,-0.039790600538253784,-0.02415982261300087,-0.27813899517059326,0.04963236674666405,-0.002974805887788534,0.0014234330737963319,0.0661148801445961,0.08324187994003296,0.1850905418395996,-0.10949411988258362,-0.07500506192445755,-0.0860951840877533,-0.04384428635239601,-0.00819721445441246,0.129786416888237,0.08448246866464615,-0.002747632097452879,-0.12627647817134857,-0.08901230990886688,-0.354172021150589,0.026502540335059166,0.092797189950943,0.20006641745567322,0.02839447185397148,0.19917230308055878,0.012514244765043259,0.09054103493690491,0.33496108651161194,-0.04943188279867172,-0.031921446323394775,-0.06178219988942146,-0.060955390334129333,-0.03312297910451889,-0.1023385226726532,0.11720113456249237,0.09976964443922043,0.14337903261184692,-0.22062687575817108,-0.2031843364238739,-0.20701351761817932,0.06408791989088058,0.008507737889885902,-0.22279565036296844,0.2179838865995407,0.3071525990962982,-4.463961522560567e-05,-0.10150142014026642,-0.21247397363185883,-0.019695095717906952,0.059442486613988876,-0.08808611333370209,0.03334686532616615,0.0795108824968338,0.028512539342045784,0.010347437113523483,-0.027765527367591858,0.0027563113253563643,-0.21249182522296906,0.0902618020772934,0.09978237003087997,0.04157598316669464,0.0861535593867302,-0.21542398631572723,-0.2647157907485962,0.006100682076066732,-0.22556941211223602,0.005692766979336739,0.07302802801132202,0.068936787545681,-0.029095696285367012,0.06664255261421204,0.12444743514060974,0.1996309757232666,-0.19462046027183533,0.10723370313644409,0.26237061619758606,0.17289690673351288,0.10371123999357224,-0.1448306292295456,0.23457732796669006,0.16902245581150055,0.05571545660495758,0.20705026388168335,0.03253784030675888,-0.10978277772665024,-0.16927000880241394,-0.1126585528254509,0.07896816730499268,0.12004176527261734,-0.062480028718709946,0.07030243426561356,0.2682005763053894,0.12964411079883575,-0.15207210183143616,-0.305264949798584,-0.02412252686917782,0.046467963606119156,0.06512700766324997,-0.15747196972370148,0.12172874063253403,0.26491984724998474,0.15350747108459473,0.07512577623128891,-0.2596725523471832,-0.1741616576910019,-0.06448563933372498,0.11041120439767838,-0.1537647843360901,-0.040979016572237015,-0.08184698969125748,0.004664100240916014,0.07152077555656433,0.22597062587738037,-0.11933118849992752,0.07267506420612335,-0.04823018237948418,0.0903402790427208,-0.03058028221130371,0.07321939617395401,0.016166502609848976,-0.04387242719531059,0.03321215510368347,0.017818430438637733,-0.14988313615322113,0.11804413795471191,0.027013396844267845,0.0701155737042427,0.0972302109003067,-0.060158777981996536,-0.014887102879583836,0.058110155165195465,0.03123152256011963,0.05921446904540062,-0.021897440776228905,-0.03655990958213806,0.06583880633115768,-0.030862702056765556,0.18804757297039032,-0.08666419237852097,0.1973060518503189,0.12464804202318192,0.01614721305668354,0.11570817977190018,0.14426128566265106,0.03607172891497612,0.11768656224012375,-0.05844741314649582,0.026998044922947884,-0.17156149446964264,-0.26260125637054443,0.1649080514907837,0.10933425277471542,-0.15039204061031342,-0.11877352744340897,-0.026824047788977623,-0.14795303344726562,0.17150719463825226,-0.1133713647723198,0.0007636682712472975,0.11803442984819412,-0.2190801501274109,-0.19753633439540863,-0.07278501987457275,0.030176442116498947,0.04767531529068947,0.1352989375591278,0.27213355898857117,0.30833175778388977,-0.1778648942708969,0.07267889380455017,0.12964609265327454,-0.09318717569112778,-0.007024229504168034,-0.06620553135871887,-0.1254054605960846,-0.04868616536259651,-0.12725667655467987,-0.01929459534585476,0.07563497871160507,0.017201663926243782,0.15572308003902435,-0.02398575097322464,-0.0030699281487613916,-0.06790632754564285,-0.3216278851032257,-0.2831001579761505,0.20654097199440002,-0.13681164383888245,-0.13642020523548126,0.08933497965335846,-0.14729227125644684,0.032605744898319244,0.04787056893110275,0.26977840065956116,0.12833091616630554,0.009019595570862293,-0.19220496714115143,-0.12670321762561798,0.13464583456516266,-0.10569964349269867,0.07039118558168411,-0.05675831809639931,0.2630996108055115,0.05544663593173027,-0.22072307765483856,-0.18042032420635223,-0.10997487604618073,0.1606062352657318,-0.011891343630850315,-0.06098669022321701,-0.04014365002512932,0.1269317865371704,0.033269479870796204,-0.1814681738615036,-0.12484721839427948,0.11117050796747208,0.06239914149045944,-0.11323828995227814,0.17933320999145508,-0.07841629534959793,0.042464978992938995,0.05444278195500374,0.011176335625350475,-0.06912532448768616,-0.05026635900139809,-0.10253617912530899,-0.2268790602684021,0.19268938899040222,-0.05814899876713753,-0.15597134828567505,0.1656380444765091,0.06759446114301682,-0.06821956485509872,0.04909439757466316,-0.1143321841955185,-0.2666357457637787,0.29157406091690063,-0.18285349011421204,0.13368719816207886,0.12365639209747314,-0.12169399112462997,0.14581772685050964,0.04617982357740402,-0.053931303322315216,-0.2780514061450958,0.17864806950092316,-0.2949882447719574,0.25753703713417053,0.20213718712329865,-0.011815348640084267,0.29017117619514465,-0.28923264145851135,0.21074305474758148,-0.35399937629699707,0.24657471477985382,-0.054353080689907074,0.11786848306655884,-0.08167929947376251,-0.03786315396428108,0.22525955736637115,-0.2898979187011719,0.15270327031612396,-0.23246517777442932,-0.044930752366781235,-0.1582087278366089,0.20145975053310394,0.13388216495513916,0.09014254808425903,-0.04899105429649353,-0.09626512229442596,0.21682222187519073,-0.13631358742713928,-0.05070920288562775,0.2033662497997284,-0.32905665040016174,0.17792515456676483,0.2216496765613556,-0.32101938128471375,0.014258056879043579,-0.10854987055063248,-0.2616152763366699,0.18891534209251404,0.2269471138715744,-0.34807294607162476,0.3212026059627533,-0.03297112137079239,-0.2698196470737457,0.2736847698688507,0.11666783690452576,-0.11397206038236618,0.11440005153417587,0.03822488710284233,-0.1923409402370453,0.10517236590385437,0.05017566680908203,-0.14176270365715027,0.032553546130657196,-0.2116570919752121,-0.19384565949440002,-0.17290185391902924,-0.20409929752349854,-0.0751415267586708,-0.049851804971694946,0.093332938849926,0.046473126858472824,0.173846036195755,0.35596343874931335,0.38655927777290344,0.10695526003837585,0.32097870111465454,0.3191665709018707,-0.06601769477128983,0.00035920972004532814,-0.1066155657172203,-0.2790513336658478,-0.08075834810733795,-0.41013556718826294,0.0009261701488867402,-0.04196978732943535,0.20618559420108795,0.12000364810228348,-0.2196364402770996,-0.13062459230422974,-0.03594221547245979,0.04974246397614479,0.14631184935569763,-0.01898133009672165,0.12628908455371857,-0.022451402619481087,-0.22225776314735413,-0.02096516825258732,-0.01084956619888544,-0.08596394956111908,0.12949247658252716,0.016025155782699585,-0.028859632089734077,0.12005509436130524,0.08557258546352386,-0.03007880039513111,-0.01616833359003067,-0.18292856216430664,-0.06095465272665024,0.13476641476154327,0.14744026958942413,-0.11441349983215332,0.33119651675224304,-0.02656702511012554,-0.2692160904407501,0.0006010012002661824,-0.30693086981773376,0.11117672175168991,-0.0803428590297699,0.056136708706617355,0.1285683512687683,0.1385490596294403,-0.3423173427581787,0.0025286825839430094,-0.004667532164603472,0.1422591507434845,-0.017957789823412895,-0.16124920547008514,0.07845630496740341,0.1519126147031784,0.26468032598495483,-0.3775103986263275,0.11317603290081024,-0.022420577704906464,0.27375301718711853,-0.1353892683982849,-0.09917376190423965,0.03030327707529068,0.019018122926354408,0.19998034834861755,-0.4661252200603485,-0.017745865508913994,0.029270078986883163,0.27374374866485596,-0.195002481341362,0.010057768784463406,0.13002964854240417,-0.21556684374809265,0.03747204318642616,0.19733025133609772,-0.19668398797512054,-0.07756606489419937,0.2504469156265259,-0.11931762099266052,-0.0535452626645565,0.24357831478118896,-0.3352104127407074,-0.1901988685131073,0.4920790493488312,-0.20086266100406647,-0.11083070933818817,0.005802045576274395,0.08841478079557419,0.010605470277369022,0.0309431329369545,-0.05783475562930107,-0.10760614275932312,0.3254614472389221,-0.21396514773368835,-0.0945977047085762,0.16378599405288696,-0.02289445325732231,0.19919100403785706,0.045159779489040375,0.2412765920162201,0.18598227202892303,-0.1754871904850006,0.011542810127139091,0.0828600525856018,-0.2823321521282196,0.012993758544325829,0.17526371777057648,0.06311684846878052,0.014351406134665012,-0.03162754327058792,-0.07067910581827164,-0.1222977414727211,-0.1160195991396904,-0.394815057516098,-0.1119551733136177,-0.03887030854821205,-0.01659398153424263,-0.018823716789484024,0.00968611054122448,-0.14078854024410248,0.012517843395471573,0.013324396684765816,0.159823939204216,0.006121121346950531,-0.004604719579219818,0.1626705676317215,-0.19925402104854584,0.13178741931915283,0.11468767374753952,0.047244809567928314,0.021652085706591606,-0.38476258516311646,0.23095613718032837,-0.07727018743753433,0.1395089477300644,0.12376072257757187,0.08965543657541275,0.07403600960969925,0.05056142434477806,-0.059481870383024216,-0.44252800941467285,0.2059452086687088,0.051148608326911926,0.1849251538515091,-0.16513961553573608,0.0015235161408782005,0.026123354211449623,0.19224077463150024,-0.09235342592000961,-0.41033390164375305,0.15718014538288116,-0.0618591234087944,0.2472468912601471,0.27793219685554504,-0.34680959582328796,0.01584666408598423,0.1203279197216034,-0.1716768443584442,-0.2950117886066437,0.0822899118065834,-0.041972748935222626,0.22539569437503815,0.13863641023635864,-0.22361503541469574,-0.1374240517616272,0.1960047334432602,0.07190480828285217,-0.22855545580387115,-0.035622674971818924,0.057738810777664185,-0.1331121027469635,-0.08334572613239288,0.20143309235572815,-0.07783634960651398,-0.17217975854873657,0.16665813326835632,0.19374896585941315,0.02036331221461296,-0.07811674475669861,0.04920627176761627,0.076532281935215,0.08618099242448807,-0.09198886901140213,-0.08607328683137894,-0.016643870621919632,-0.1947343647480011,0.02494979463517666,0.013614819385111332,-0.08076059073209763,-0.055705439299345016,0.04547860845923424,0.09663734585046768,-0.07485247403383255,-0.03886362165212631,0.10208895802497864,0.2026202380657196,0.008215406909584999,-0.0998917743563652,0.21050651371479034,-0.06512899696826935,-0.02341386117041111,-0.0529988594353199,-0.07820815593004227,-0.22618678212165833,-0.086943618953228,-0.2032746970653534,0.14469246566295624,0.11833763122558594,0.08343956619501114,-0.39011913537979126,0.1667998880147934,0.22316262125968933,0.14634554088115692,-0.24040545523166656,-0.1153358742594719,0.0672532320022583,0.055037107318639755,-0.03357972577214241,-0.064556784927845,0.09494592249393463,0.1840619444847107,-0.017767075449228287,-0.2744607627391815,-0.1819414496421814,0.08000241965055466,0.09140051901340485,0.04191477969288826,-0.23125246167182922,0.25757479667663574,0.13262738287448883,0.11947499215602875,-0.2622242867946625,0.03958911821246147,-0.31015926599502563,0.15649697184562683,-0.06333756446838379,-0.23854286968708038,-0.10396984219551086,0.2503093183040619,-0.015009400434792042,0.11046742647886276,0.14546933770179749,-0.33651477098464966,0.09165724366903305,0.2545240521430969,0.11319894343614578,0.17022232711315155,-0.12550203502178192,-0.15193890035152435,-0.051599133759737015,-0.08107417076826096,0.018489275127649307,0.14049383997917175,0.25728723406791687,-0.1847773790359497,0.16076049208641052,-0.0612233504652977,-0.12154179066419601,0.13061252236366272,0.13742388784885406,0.06126684695482254,-0.16349254548549652,0.039341818541288376,-0.056472741067409515,-0.17811395227909088,0.05387013778090477,-0.1444615125656128,0.21892490983009338,0.16484928131103516,-0.23554658889770508,-0.020292075350880623,-0.10310960561037064,-0.04605782404541969,0.06740253418684006,-0.11321772634983063,-0.19520828127861023,-0.13309624791145325,0.023293031379580498,-0.06443030387163162,0.13612353801727295,-0.165541872382164,0.2616596817970276,0.20573221147060394,0.1768244206905365,0.19115717709064484,-0.04960444197058678,-0.14146606624126434,-0.07683641463518143,-0.19630326330661774,-0.3693872392177582,-0.19769959151744843,-0.12791486084461212,0.4255963861942291,0.30321842432022095,0.3243308365345001,-0.011912898160517216,0.12046856433153152,-0.12191177904605865,0.0067277345806360245,0.06340477615594864,-0.012433773837983608,-0.12314434349536896,0.012120497412979603,0.06216533109545708,0.08195328712463379,0.2973381578922272,0.03756701946258545,0.1563320755958557,-0.0533757247030735,-0.15645986795425415,-0.24469253420829773,0.017351385205984116,-0.0802261084318161,-0.17395898699760437,0.26365190744400024,-0.01229685079306364,0.18569323420524597,0.06117759272456169,-0.17948709428310394,0.05608145520091057,-0.2734857201576233,0.07521294802427292,-0.2373553365468979,0.27346909046173096,-0.076211117208004,0.3021489381790161,0.1342390477657318,-0.30324169993400574,0.1698237955570221,-0.13547417521476746,-0.1256948560476303,-0.3253580927848816,0.12324461340904236,0.12043555825948715,-0.1547594964504242,0.18378449976444244,-0.15331783890724182,0.0485813170671463,-0.17598944902420044,0.32059237360954285,-0.20182032883167267,-0.2107781320810318,0.0955866351723671,-0.10842956602573395,-0.09311173856258392,-0.1070665791630745,-0.24151255190372467,-0.30540522933006287,0.020606381818652153,0.21423935890197754,0.0983768031001091,0.06068640202283859,0.06382089108228683,0.17035116255283356,0.08241169899702072,0.22046975791454315,0.14559654891490936,0.0810365304350853,-0.15524233877658844,-0.10882087051868439,-0.03348693624138832,0.09356698393821716,0.2049216330051422,0.03483378887176514,0.051775407046079636,0.09392749518156052,-0.1070629358291626,0.058595769107341766,0.07860918343067169,-0.16895709931850433,0.04979519546031952,-0.014850233681499958,-0.05017590522766113,0.05456172302365303,-0.2975359857082367,-0.33438464999198914,-0.06165340170264244,0.1791791021823883,-0.16727451980113983,-0.10645841062068939,-0.11039818078279495,-0.133450448513031,0.031610146164894104,-0.05117173120379448,-0.04270342364907265,0.07484705746173859,0.19920605421066284,-0.16769316792488098,0.15713688731193542,0.23296388983726501,0.06038685142993927,0.2071400284767151,0.2643294334411621,-0.006217731162905693};
const float bias1[32] = {-0.1459609866142273,0.039083242416381836,-0.2815631031990051,-0.018425889313220978,0.07366464287042618,0.012893940322101116,-0.045398980379104614,-0.14990665018558502,-0.17469635605812073,-0.013707313686609268,0.18626485764980316,0.08384376764297485,-0.2081063687801361,-0.00975734367966652,-0.01390252448618412,-0.010074823163449764,-0.014502639882266521,-0.018646802753210068,-0.035932254046201706,-0.006802159361541271,-0.012205286882817745,-0.2577182948589325,-0.19591788947582245,-0.014348329044878483,-0.009992420673370361,-0.025764232501387596,0.04966234415769577,0.170491024851799,-0.002959218807518482,-0.0050118425861001015,0.11606280505657196,-0.07707557827234268};
const float weight2[9216] = {0.07896546274423599,-0.19056178629398346,-0.010244371369481087,0.07986980676651001,-0.09509619325399399,0.21502363681793213,-0.025091294199228287,0.2282979041337967,0.05657323822379112,-0.13683627545833588,0.009001840837299824,0.025349246338009834,-0.01467740349471569,0.059265993535518646,0.09085533767938614,0.06917771697044373,0.06460589170455933,-0.020039208233356476,0.04095793515443802,0.06987162679433823,0.07583117485046387,-0.10533453524112701,0.01385633647441864,-0.12142714858055115,-0.013077909126877785,-0.12690721452236176,0.13653767108917236,0.013299280777573586,0.07714866101741791,0.05141935870051384,-0.03683338686823845,0.1362854689359665,0.1330079436302185,0.15095016360282898,0.04509667307138443,0.0913691520690918,-0.01114829070866108,0.2651903033256531,0.03246656432747841,-0.09517936408519745,0.2240215241909027,-0.1568455547094345,-0.10672653466463089,0.08813703805208206,-0.18799006938934326,-0.10700857639312744,-0.20167239010334015,-0.16733279824256897,0.19827978312969208,-0.07508692145347595,0.004374182783067226,-0.10768503695726395,-0.14974354207515717,0.015095449984073639,0.07079265266656876,-0.008685431443154812,-0.05581916496157646,-0.04067540913820267,0.16430915892124176,-0.016216175630688667,0.07846049964427948,0.09229590743780136,0.04907133802771568,0.08399264514446259,-0.04126686230301857,-0.1451198160648346,0.051848869770765305,-0.013900076039135456,-0.059528324753046036,-0.0979752391576767,-0.017716288566589355,-0.311498761177063,0.21086977422237396,0.0890980139374733,-0.04106765240430832,0.0694529265165329,-0.25252434611320496,-0.10692069679498672,-0.11548472940921783,-0.17500606179237366,0.16611763834953308,-0.025097467005252838,0.08841446042060852,0.010988347232341766,0.07011806219816208,0.059804365038871765,-0.07873108237981796,0.06246018409729004,0.11925194412469864,0.20417757332324982,0.08479870855808258,0.014053093269467354,-0.07599223405122757,0.11169997602701187,0.08833016455173492,-0.15634267032146454,-0.08639620989561081,-0.1698143184185028,-0.20098280906677246,0.07163748145103455,0.0659676045179367,-0.061531879007816315,0.09098521620035172,0.006720178760588169,-0.16548536717891693,-0.1393827497959137,-0.0780489444732666,-0.033030588179826736,0.07950805872678757,0.09313707053661346,0.028432240709662437,0.04666827619075775,-0.12472302466630936,-0.03544212505221367,0.07777073234319687,-0.0398654080927372,0.008602113462984562,0.12644584476947784,0.14987681806087494,0.21680404245853424,0.020781010389328003,0.013430153019726276,-0.004058577585965395,-0.09635142982006073,0.06042438745498657,0.11793273687362671,-0.024489691480994225,-0.011213565245270729,-0.15236502885818481,0.08147843182086945,0.06692250818014145,-0.01257711835205555,0.0029522718396037817,-0.2552455961704254,-0.18447056412696838,0.023377129808068275,0.018408851698040962,-0.08772742748260498,-0.03379795700311661,-0.11768228560686111,0.08257247507572174,-0.08159206062555313,-0.2614521384239197,0.17931990325450897,0.042002514004707336,0.048110853880643845,0.016807762905955315,0.07777252793312073,0.13264109194278717,0.05582065507769585,0.2519705593585968,-0.01079118624329567,0.1630266010761261,-0.07805474102497101,0.08595633506774902,0.04918878152966499,-0.0698474571108818,0.17854446172714233,-0.03951224312186241,0.013770319521427155,-0.025032423436641693,0.06258862465620041,-0.03875928372144699,0.0365254282951355,-0.16021402180194855,0.07816936820745468,-0.022040465846657753,-0.01906258799135685,-0.007533313240855932,0.04848382994532585,-0.030023571103811264,-0.01400784868746996,0.02869989350438118,0.09768374264240265,-0.06269611418247223,0.1537516713142395,0.009396295994520187,-0.016005193814635277,-0.07707081735134125,-0.1781614124774933,-0.006954109761863947,0.03790514916181564,0.0051954155787825584,0.04752723500132561,0.02754642255604267,0.29437199234962463,0.14970451593399048,-0.0703064501285553,0.1439739316701889,-0.002125227591022849,-0.14987127482891083,0.010873856954276562,-0.08949745446443558,0.12711666524410248,-0.0969429537653923,-0.18048499524593353,0.07474635541439056,0.13081452250480652,-0.0896110087633133,-0.16343091428279877,-0.20140786468982697,-0.17335213720798492,0.024724267423152924,-0.03449900448322296,-0.08792965114116669,0.08468765020370483,-0.01690639927983284,0.09112139791250229,0.023560496047139168,-0.017948945984244347,0.0743362158536911,0.003512256545946002,-0.03200286999344826,0.14084568619728088,-0.004319888073951006,0.14634500443935394,0.052062634378671646,-0.052361443638801575,-0.16576683521270752,0.1759798377752304,0.05517049878835678,-0.015282713808119297,-0.3359348177909851,-0.1635196954011917,-0.06909339129924774,-0.3273102343082428,-0.2574441432952881,-0.16429150104522705,-0.08726707845926285,-0.08992525190114975,-0.2434842735528946,-0.3567037880420685,-0.4668533504009247,-0.3849996030330658,0.04866894334554672,0.039199091494083405,0.09990164637565613,-0.024263175204396248,0.1156565397977829,0.08129461109638214,0.15365858376026154,-0.036247365176677704,0.08427782356739044,0.019117262214422226,-0.07162603735923767,-0.05699879303574562,-0.03135122358798981,0.06848112493753433,0.12914080917835236,-0.05849015712738037,-0.11144616454839706,-0.042826827615499496,0.25506627559661865,-0.012484212405979633,0.12870587408542633,-0.12645994126796722,0.09973317384719849,0.006728034000843763,0.12057404965162277,0.1833895444869995,0.026446620002388954,-0.08243989199399948,-0.12893757224082947,-0.008575321175158024,0.12462911754846573,-0.025366244837641716,0.06906316429376602,-0.08216333389282227,-0.3057667016983032,-0.24374200403690338,-0.017527809366583824,-0.11045517027378082,-0.010064001195132732,0.07114903628826141,-0.025873951613903046,0.045038074254989624,-0.07907052338123322,-0.12358970940113068,-0.028338557109236717,-0.16973689198493958,-0.013538775034248829,-0.05558544769883156,-0.030319631099700928,-0.024753522127866745,0.13300880789756775,-0.017465515062212944,0.0549965426325798,-0.00862062256783247,0.01654006540775299,0.06541510671377182,0.2380247265100479,0.14953966438770294,0.20560085773468018,0.02667504921555519,0.17860440909862518,-0.11239669471979141,-0.4248485565185547,-0.07004398107528687,-0.014470214024186134,0.10303366929292679,-0.017667697742581367,0.10026682168245316,-0.03211687132716179,-0.17773574590682983,0.014122698456048965,-0.042674146592617035,0.09600690007209778,-0.17328239977359772,0.07929588109254837,-0.06186347082257271,-0.027820032089948654,-0.0999751165509224,-0.044545747339725494,0.05508741736412048,-0.01898164115846157,0.07127154618501663,0.06183059886097908,-0.11591468751430511,-0.030681561678647995,-0.025737956166267395,0.10495012253522873,-0.0053933244198560715,0.04473498836159706,0.06567224115133286,-0.20342478156089783,0.012911376543343067,0.20907217264175415,0.09642118215560913,0.01871057040989399,0.06259426474571228,0.13296939432621002,-0.17332428693771362,-0.22421759366989136,-0.15764999389648438,-0.15528751909732819,0.05361059680581093,-0.09948194026947021,0.04998812824487686,0.07277122139930725,-0.12874862551689148,0.13264483213424683,0.039227794855833054,0.1537148803472519,-0.08597439527511597,-0.06684722006320953,0.13827799260616302,0.17437811195850372,0.12519995868206024,0.240350142121315,0.027103610336780548,-0.07817436754703522,0.15876391530036926,-0.08420707285404205,-0.021016601473093033,-0.2232312262058258,0.06388992071151733,-0.1314498484134674,0.18626900017261505,-0.2118731290102005,-0.09238915890455246,-0.146375834941864,0.14144715666770935,0.17351067066192627,-0.24304334819316864,-0.17716056108474731,-0.031004853546619415,-0.008636841550469398,0.04394851252436638,-0.08849088847637177,-0.015123131684958935,-0.09537061303853989,0.10599598288536072,-0.23830938339233398,-0.09947507828474045,-0.03283778205513954,-0.010118024423718452,0.02280298061668873,-0.002019039820879698,-0.10040991008281708,0.06861710548400879,0.10656396299600601,-0.18693885207176208,-0.027828838676214218,0.09263091534376144,-0.03003157302737236,0.019672125577926636,0.07111853361129761,0.007352995220571756,-0.03217979520559311,0.06598907709121704,-0.022076932713389397,-0.00821211189031601,-0.12890279293060303,0.15861667692661285,0.21850378811359406,0.16444529592990875,-0.033994581550359726,0.11358142644166946,0.1365075409412384,-0.057506971061229706,-0.0297174621373415,-0.2813678979873657,0.02831104025244713,-0.010884823277592659,-0.048506010323762894,0.03985007479786873,0.10890994966030121,0.12020264565944672,-0.01604117639362812,-0.03400708734989166,-0.0712226927280426,0.18764610588550568,0.0762333869934082,0.02387060411274433,0.26413092017173767,-0.10826707631349564,0.26052629947662354,-0.0710272416472435,-0.1047312319278717,0.10731137543916702,0.05572434514760971,-0.03242522478103638,-0.2167792171239853,0.184016153216362,-0.22962471842765808,-0.46346282958984375,-0.6648411154747009,-0.4656558632850647,-0.6551882028579712,-0.6180012226104736,-0.5165464878082275,-0.2909362316131592,-0.04661562666296959,-0.04674943909049034,-0.17524878680706024,-0.49011701345443726,-0.0280808974057436,-0.1056605726480484,-0.03032524697482586,-0.16520699858665466,-0.08703913539648056,-0.028171449899673462,0.12330741435289383,0.009441230446100235,0.050622306764125824,-0.11855844408273697,-0.007601583376526833,0.1253003031015396,0.048954203724861145,-0.09997837990522385,-0.0025942677166312933,-0.1464720070362091,-0.08699160814285278,-0.030060922726988792,0.06479821354150772,-0.16774556040763855,0.06565650552511215,0.23751364648342133,0.07868301868438721,-0.08626537770032883,-0.037633903324604034,0.1469034105539322,-0.09131791442632675,-0.017972307279706,-0.06572581827640533,0.11873631924390793,-0.06187479943037033,-0.12023366242647171,-0.045469872653484344,-0.16701848804950714,0.0406692810356617,-0.1871960610151291,0.08130133152008057,0.133244127035141,0.05073424428701401,-0.11771826446056366,0.03788752853870392,0.1251760721206665,0.016617538407444954,-0.22551807761192322,0.13146233558654785,0.17192189395427704,-0.026670990511775017,0.11524547636508942,-0.08576925098896027,0.01973028853535652,-0.17523765563964844,0.08934434503316879,0.24516969919204712,-0.008211157284677029,0.0060999332927167416,0.08383696526288986,-0.12172993272542953,-0.0362999327480793,-0.032778725028038025,-0.10832647234201431,0.08138609677553177,0.08930326253175735,0.14225371181964874,0.12095795571804047,0.1574881374835968,0.29968640208244324,0.10533306747674942,-0.09096045047044754,0.1194593533873558,0.11236761510372162,9.576040611136705e-05,-0.048585548996925354,0.002488108351826668,-0.04582944139838219,-0.033178675919771194,0.03713371604681015,-0.019214801490306854,-0.12549135088920593,-0.22220587730407715,-0.16575604677200317,-0.44450893998146057,-0.5477924346923828,-0.43466484546661377,0.14415334165096283,-0.45393380522727966,-0.28767088055610657,-0.07512698322534561,0.03852865472435951,0.21102622151374817,-0.11203687638044357,0.11581394076347351,-0.07617075741291046,0.1358746886253357,0.0028838871512562037,0.09257775545120239,-0.12205565720796585,0.023016389459371567,-0.13191291689872742,-0.034469764679670334,0.014132725074887276,-0.003385632997378707,0.0692489892244339,0.12393604218959808,0.06951813399791718,0.07970408350229263,-0.05140208080410957,0.03462154045701027,-0.18654365837574005,0.06225578859448433,-0.05850808322429657,0.22986091673374176,0.01704965904355049,0.11432164162397385,-0.1316390484571457,-0.13876673579216003,-0.2066698670387268,-0.45468956232070923,-0.20982562005519867,-0.5816500782966614,-0.4744223654270172,-0.1064206138253212,0.20015430450439453,0.006732283625751734,0.08115600794553757,0.0897560715675354,0.024337098002433777,-0.016713274642825127,-0.04466649517416954,0.007777142338454723,-0.05509696155786514,0.004519609268754721,-0.022835062816739082,0.1372344195842743,0.1026928573846817,0.04157136008143425,-0.20112484693527222,-0.007578984834253788,0.041532184928655624,-0.04144144803285599,0.07058104872703552,-0.0018527294741943479,-0.008790184743702412,0.0761486142873764,0.03352183476090431,-0.03129233419895172,-0.07913607358932495,-0.009255421347916126,0.1819639354944229,0.13880625367164612,-0.011892329901456833,0.035834427922964096,0.04442698881030083,-0.0591449998319149,-0.054755259305238724,0.08942146599292755,-0.048235610127449036,-0.15402904152870178,0.054857440292835236,0.014129064045846462,-0.1208365261554718,0.12364079803228378,-0.07097210735082626,0.04284542053937912,0.041694313287734985,0.14969761669635773,0.040569599717855453,-0.085625059902668,0.04725473001599312,0.0415700301527977,0.028240593150258064,-0.03408282995223999,0.043679915368556976,0.01030491292476654,0.12001830339431763,0.260879248380661,0.1334737092256546,0.00395260751247406,-0.1050119549036026,0.012299617752432823,-0.00951643567532301,-0.006038365885615349,0.006311006844043732,-0.0522800050675869,0.09480109810829163,-0.020662464201450348,0.053896233439445496,0.03827938064932823,0.06873594969511032,0.004950765985995531,-0.06081414222717285,0.08233579248189926,0.09319398552179337,-0.20999783277511597,-0.08372119069099426,-0.02275698445737362,-0.0657905861735344,-0.056713785976171494,-0.029157033190131187,0.13841237127780914,-0.12028466165065765,0.020070146769285202,0.20670291781425476,0.08753892034292221,-0.0433625802397728,-0.0846312865614891,0.025514500215649605,-0.1991272270679474,-0.03884946554899216,-0.0060501997359097,0.13163550198078156,0.01555613148957491,-0.04442043602466583,0.03633778914809227,0.010475181974470615,0.10875539481639862,0.09586229175329208,-0.15111704170703888,0.11107481271028519,0.09442378580570221,0.015647143125534058,-0.15628260374069214,0.016309546306729317,0.07217024266719818,0.06154700741171837,-0.014187083579599857,0.015149521641433239,-0.09086055308580399,0.024791307747364044,0.06918109208345413,0.283392995595932,-0.13904185593128204,-0.055846258997917175,0.013577094301581383,-0.07002884149551392,0.06686011701822281,0.08384034037590027,-0.15440551936626434,0.019213128834962845,-0.1529175490140915,-0.04041019082069397,0.15141290426254272,0.03736359626054764,-0.15623730421066284,0.16945341229438782,-0.011466613039374352,-0.12707531452178955,-0.15315191447734833,-0.1803298145532608,0.1053648442029953,0.09955891221761703,-0.016459133476018906,0.11225614696741104,-0.11381900310516357,-0.05967354401946068,0.4118201732635498,0.16134141385555267,-0.0770694687962532,0.05453069508075714,0.12751638889312744,0.07642364501953125,0.050698693841695786,0.01159588061273098,0.06567249447107315,-0.09579455852508545,-0.07012714445590973,-0.06491583585739136,0.012617954052984715,0.00793407391756773,-0.0573170967400074,0.13343213498592377,0.07120532542467117,-0.019104473292827606,-0.17728585004806519,-0.022572388872504234,0.023004623129963875,0.04684261605143547,0.10487882792949677,-0.005615004803985357,-0.02315090037882328,0.07167521864175797,0.22572419047355652,0.020403163507580757,-0.21312707662582397,0.07445678859949112,0.1262112259864807,0.02914642170071602,-0.02857952192425728,-0.026494169607758522,-0.09214844554662704,-0.012369353324174881,-0.08141601830720901,-0.12418988347053528,0.0006970780086703598,0.10398569703102112,-0.03748149052262306,0.012811458669602871,0.09953007847070694,0.15260887145996094,0.14794021844863892,0.16676197946071625,0.018619326874613762,-0.19390557706356049,0.015406276099383831,0.17186367511749268,-0.14694105088710785,-0.08242880553007126,0.014353315345942974,0.09651386737823486,-0.08954419940710068,-0.12184230983257294,0.08131644874811172,0.03921502083539963,-0.05483696609735489,0.12720075249671936,-0.08278702944517136,0.12495622783899307,-0.06409227102994919,-0.29960358142852783,0.05743235722184181,-0.19736804068088531,-0.023239197209477425,-0.125707745552063,0.062453873455524445,0.03795446455478668,0.13035231828689575,-0.1307528018951416,0.0014563691802322865,-0.19298861920833588,-0.04867753013968468,0.018973788246512413,0.08789981156587601,0.03279059752821922,-0.14014099538326263,0.055232688784599304,-0.02218587137758732,0.06264014542102814,0.020504891872406006,-0.004166035447269678,-0.09076574444770813,-0.059408608824014664,-0.045709751546382904,0.03434252738952637,-0.2969425618648529,-0.09171455353498459,0.1244935542345047,0.18708257377147675,0.17724692821502686,-0.21354474127292633,0.047262609004974365,-0.01057229284197092,0.05363822355866432,0.08873376250267029,-0.14942467212677002,-0.020418159663677216,-0.05962146446108818,0.07857266813516617,-0.12076690047979355,-0.12360246479511261,0.02235763892531395,-0.04095730558037758,0.055552996695041656,0.02114703133702278,-0.044795989990234375,-0.03705693408846855,-0.08503231406211853,-0.022195864468812943,-0.0153975710272789,-0.060463208705186844,0.004053336102515459,-0.1417616754770279,0.05713807791471481,0.11173415929079056,0.06324215978384018,-0.08517340570688248,0.05188566446304321,0.11603902280330658,0.1470169872045517,0.1069198027253151,0.05299908667802811,0.0644773468375206,0.08169662207365036,-0.07727967202663422,-0.08373072743415833,0.0022377758286893368,0.16979897022247314,-0.12365241348743439,0.16147500276565552,0.05732784420251846,0.15512129664421082,-0.05250253155827522,0.002230989746749401,-0.05615128204226494,-0.06051738187670708,0.10198026895523071,0.15652795135974884,0.06367311626672745,0.10470964014530182,0.11401322484016418,-0.1839781105518341,0.23507922887802124,0.07657764852046967,0.020455647259950638,0.17091092467308044,0.13193178176879883,0.11236344277858734,0.059875741600990295,0.23885482549667358,-0.14844703674316406,-0.10423160344362259,-0.04639354720711708,-0.0031642785761505365,0.025693202391266823,-0.18687023222446442,0.028601061552762985,0.05934242531657219,-0.011950232088565826,-0.021692175418138504,-0.11109775304794312,0.06479235738515854,-0.11842157691717148,-0.03280405327677727,-0.03068174608051777,0.030340785160660744,-0.07974982261657715,-0.19863729178905487,-0.004297695122659206,0.07207254320383072,0.043342430144548416,-0.11215841770172119,-0.05835709720849991,-0.48769381642341614,-0.16472852230072021,-0.04945395886898041,0.05085301026701927,0.11392956227064133,0.17667731642723083,-0.02910979650914669,-0.16017843782901764,0.037918802350759506,-0.10580935329198837,-0.17079870402812958,0.006712521892040968,0.003367184428498149,-0.06338156759738922,0.09694527834653854,0.000746735546272248,-0.1615990698337555,0.058990634977817535,0.25647127628326416,-0.003887609113007784,-0.10363608598709106,-0.17036831378936768,0.1398468166589737,0.3227914273738861,0.08687251061201096,0.2714071571826935,-0.13335609436035156,-0.04388981685042381,0.054858267307281494,-0.05193205922842026,-0.010338863357901573,-0.05942723900079727,0.07066455483436584,0.17236246168613434,0.014165324158966541,0.02639281190931797,-0.0014235697453841567,0.0091834906488657,0.06013624742627144,-0.016314493492245674,-0.11128856986761093,-0.17906078696250916,-0.2625980079174042,-0.23263242840766907,-0.15045441687107086,-0.1700511872768402,-0.13525372743606567,-0.21020519733428955,-0.028070474043488503,-0.09983976185321808,-0.09753376990556717,0.12435332685709,0.2101260870695114,0.05990830063819885,-0.12485555559396744,0.21078747510910034,0.04692641273140907,0.10041381418704987,-0.06847863644361496,0.00835036113858223,0.12782740592956543,-0.09635215997695923,0.3602583110332489,-0.3058759272098541,-0.07872635871171951,-0.10571777075529099,-0.1173366904258728,-0.027504144236445427,-0.10411032289266586,0.10023629665374756,-0.007821683771908283,-0.09479551762342453,-0.07964348793029785,-0.15125614404678345,-0.0062322188168764114,0.1702895611524582,-0.12002407759428024,-0.01005384512245655,0.09990286827087402,-0.10280565917491913,0.005304004531353712,0.044297609478235245,-0.06500451266765594,0.19461855292320251,-0.05216272920370102,0.02027118019759655,-0.15764972567558289,0.1288728415966034,-0.23728543519973755,0.09014832228422165,0.06822508573532104,0.04625649377703667,0.12277260422706604,0.0756213590502739,-0.06361153721809387,-0.017463568598031998,-0.058329857885837555,0.0906529352068901,0.0520680770277977,-0.07370100915431976,-0.03377204015851021,-0.006950562819838524,-0.054610323160886765,-0.2271827906370163,-0.08571761846542358,-0.05887330323457718,0.1980825662612915,0.02306426130235195,0.08001558482646942,0.18010751903057098,0.00023971759947016835,0.08338326960802078,0.28123465180397034,0.07799166440963745,0.20253810286521912,0.11221812665462494,0.12767371535301208,0.015891337767243385,0.12472806125879288,0.053739652037620544,0.15123005211353302,0.12541984021663666,0.02354354038834572,-0.09606508910655975,-0.13623404502868652,0.14154347777366638,0.01385497860610485,-0.0814957544207573,0.22767208516597748,0.033687200397253036,-0.2127109169960022,-0.06116413697600365,-0.015746748074889183,0.057702284306287766,0.10761942714452744,0.17463606595993042,0.0253641065210104,-0.25507652759552,-0.06559610366821289,0.012205258011817932,-0.12863300740718842,0.2748200297355652,-0.41074690222740173,-0.20261584222316742,-0.14367187023162842,-0.5425748229026794,-0.6255288124084473,-0.21682921051979065,0.034291163086891174,-0.12639430165290833,-0.0985625833272934,0.1351412832736969,-0.16566874086856842,-0.12187817692756653,-0.09785810858011246,0.0551401749253273,0.25210192799568176,-0.03462424501776695,0.17921747267246246,0.07032561302185059,-0.05724626034498215,-0.039618391543626785,0.015843236818909645,-0.09236598759889603,0.014633099548518658,-0.19396758079528809,-0.016050485894083977,-0.05881725251674652,-0.19035334885120392,0.023200904950499535,-0.037072695791721344,-0.12381748110055923,-0.06820067018270493,-0.2969968318939209,-0.15605118870735168,0.10660886764526367,0.08991363644599915,-0.2240620106458664,-0.3246472477912903,-0.031662557274103165,0.009361078962683678,-0.32210850715637207,-0.23869986832141876,-0.4196425676345825,-0.10446050763130188,-0.3809782862663269,-0.3091321289539337,-0.05861538276076317,-0.10518833994865417,0.006144251208752394,0.09072411060333252,-0.1451883465051651,-0.13735702633857727,-0.06582198292016983,0.07687409967184067,-0.09075841307640076,-0.08669134229421616,0.04514172673225403,0.01989881880581379,-0.09863471239805222,0.04542596638202667,0.1090882197022438,0.2070142924785614,-0.12379034608602524,0.03147265315055847,-0.0463411919772625,0.11823295056819916,0.12160242348909378,-0.10157649964094162,-0.02518993429839611,0.03270883485674858,0.10456977784633636,0.05028466507792473,-0.0294207576662302,0.10992922633886337,0.026011904701590538,-0.011663176119327545,-0.11743238568305969,-0.03673308342695236,-0.014368913136422634,-0.14869748055934906,-0.02398485317826271,0.04179459065198898,0.13663512468338013,0.2377307415008545,0.37377336621284485,0.2643284499645233,0.2800915241241455,0.17226245999336243,0.11725271493196487,0.29497358202934265,-0.020051514729857445,-0.05778397247195244,-0.10291700810194016,0.011995286680758,-0.01886044815182686,-0.2056625485420227,0.3423774838447571,0.013507803902029991,-0.05533240735530853,-0.03147851303219795,0.07983791828155518,0.17374731600284576,0.022773491218686104,0.06974532455205917,0.047518257051706314,0.2068673074245453,0.09918145090341568,-0.11050490289926529,0.10538361221551895,0.027215996757149696,-0.31969472765922546,-0.10880783200263977,0.191823810338974,0.02094709873199463,0.019753342494368553,0.020416438579559326,0.06384680420160294,0.1745089292526245,0.08978147059679031,-0.1350320279598236,-0.014111164025962353,0.21926625072956085,-0.06673037260770798,-0.20882534980773926,-0.0629974752664566,-0.044650811702013016,0.18098901212215424,0.035062000155448914,0.11968669295310974,-0.027964280918240547,-0.06709533929824829,-0.11620719730854034,0.01414295844733715,-0.0463087297976017,-0.07122131437063217,0.1413719356060028,-0.37493133544921875,-0.08438193798065186,0.1650596261024475,0.17959687113761902,-0.011825045570731163,-0.04626445099711418,-0.060202620923519135,0.0011921041877940297,0.11167598515748978,0.0777490884065628,-0.033161986619234085,0.18438097834587097,0.11775853484869003,-0.1464143991470337,0.19044728577136993,0.04158680513501167,0.09449419379234314,0.012158457189798355,-0.18607044219970703,-0.04756827652454376,0.03564031794667244,0.037020981311798096,0.05718937888741493,0.153087317943573,0.029136192053556442,-0.06461518257856369,0.011639537289738655,0.05519547313451767,0.09195241332054138,0.01703239418566227,0.09295901656150818,0.029136095196008682,-0.10089107602834702,-0.048112932592630386,-0.011800047941505909,-0.14917433261871338,-0.17222526669502258,-0.04654494673013687,-0.05991543084383011,0.0966002568602562,-0.12446198612451553,0.16766893863677979,0.014540810137987137,-0.10671746730804443,-0.03908507153391838,0.16217564046382904,-0.13256819546222687,-0.06277159601449966,0.05319247394800186,0.06406562030315399,-0.14469550549983978,-0.18121027946472168,0.3196016848087311,-0.0631115511059761,0.13148105144500732,-0.061788082122802734,-0.06214537099003792,-0.0326925627887249,0.17367962002754211,0.02542898990213871,0.005071152467280626,0.12363176047801971,0.02230548858642578,0.04831897094845772,-0.10299568623304367,-0.1378486156463623,0.0488407202064991,-0.05876801908016205,-0.06653578579425812,-0.12235412746667862,-0.17750568687915802,0.07956479489803314,-0.07552575320005417,0.12295439094305038,0.004412053152918816,0.02695792354643345,-0.23051396012306213,0.0031990099232643843,-0.04910840466618538,-0.03387894853949547,-0.06126145273447037,0.021596144884824753,0.02900029718875885,0.03289938345551491,-0.009120067581534386,-0.1714479923248291,-0.13541701436042786,0.2012285739183426,-0.03324773535132408,-0.08184625208377838,-0.025998784229159355,0.07355789095163345,0.009873556904494762,0.06796731799840927,-0.06715265661478043,-0.006758539937436581,0.04765348881483078,0.019934117794036865,-0.1289016604423523,-0.18029046058654785,-0.02617797628045082,0.005086641293019056,-0.0641418918967247,-0.13172590732574463,-0.007937072776257992,0.026557300239801407,0.030900828540325165,0.058614976704120636,-0.1030702292919159,-0.17728827893733978,-0.18842117488384247,0.17113228142261505,-0.11248154938220978,0.168349489569664,0.23798945546150208,-0.09834316372871399,-0.009803857654333115,0.12342487275600433,0.09904209524393082,-0.0454215481877327,-0.015239846892654896,-0.11501913517713547,-0.013592282310128212,0.31876710057258606,-0.008105581626296043,-0.2975468635559082,0.09335017949342728,-0.1446201503276825,-0.1860966980457306,-0.1453375667333603,0.028062228113412857,-0.11633650213479996,-0.09631650149822235,-0.06704452633857727,0.029916435480117798,0.05188774690032005,-0.08198703080415726,-0.06201041862368584,-0.061694853007793427,0.21262866258621216,-0.11409708112478256,-0.03465897589921951,-0.008648869581520557,-0.02826661244034767,-0.03513647988438606,0.10347341746091843,0.0563051700592041,-0.194904163479805,0.023066231980919838,-0.006156502291560173,0.02880900166928768,-0.10087694227695465,0.11397260427474976,0.02252458594739437,-0.03179929777979851,0.031084632501006126,0.05917821452021599,-0.00026344688376411796,-0.04809898883104324,0.12192761898040771,0.08364557474851608,0.07095293700695038,0.1725241094827652,-0.18772563338279724,0.13820303976535797,0.16379396617412567,-0.14019231498241425,-0.004532823339104652,-0.17110566794872284,0.009203040041029453,0.0735451802611351,-0.10545434802770615,-0.08892031759023666,-0.0780024304986,-0.03232715651392937,0.11264500766992569,-0.10158824920654297,-0.12925384938716888,-0.0734143778681755,0.22005534172058105,-0.0522051677107811,0.007339842151850462,0.06024216488003731,-0.007238477468490601,0.06448784470558167,0.056885018944740295,0.05336762219667435,0.24317166209220886,0.18072937428951263,0.12068653851747513,0.08421394973993301,0.05807900428771973,0.07300133258104324,-0.00031453388510271907,-0.0021422829013317823,0.10545486211776733,0.06809777766466141,0.018649227917194366,0.014035368338227272,0.0018897397676482797,0.013398146256804466,-0.051914505660533905,0.006216922774910927,0.06687558442354202,-0.2100878804922104,0.012284702621400356,0.12349184602499008,0.08211681246757507,-0.11751192808151245,0.3072983920574188,0.0374455526471138,0.1036543920636177,-0.19255061447620392,0.1491873860359192,-0.03403133153915405,-0.014103840105235577,0.09658624231815338,-0.1245211586356163,0.09744708985090256,0.025915471836924553,-0.011066407896578312,0.03899306803941727,0.1339140683412552,0.09908776730298996,0.040390145033597946,-0.007798452395945787,-0.226739302277565,-0.09716244786977768,-0.045389071106910706,-0.048209354281425476,0.006937031634151936,0.1158619299530983,-0.07975566387176514,-0.08695049583911896,-0.035840075463056564,0.06586885452270508,-0.031306471675634384,0.06718393415212631,0.21473737061023712,-0.15067897737026215,-0.07773041725158691,0.058077581226825714,-0.11600086092948914,0.10731539875268936,0.10305940359830856,0.12117388844490051,-0.011914918199181557,0.18432524800300598,0.07703813910484314,-0.12024497985839844,-0.025313807651400566,0.17612124979496002,-0.10969228297472,0.08808208256959915,-0.21322616934776306,-0.029192611575126648,0.1225653663277626,-0.1390802562236786,0.0425688698887825,0.20448143780231476,0.08453723788261414,-0.17125944793224335,-0.02027306705713272,0.061529334634542465,-0.24310052394866943,0.009670688770711422,-0.03661469742655754,-0.03263957053422928,-0.08214721828699112,0.20555025339126587,0.10249506682157516,0.18257971107959747,-0.07276562601327896,0.09648078680038452,0.011293125338852406,-0.10521037876605988,0.1466664969921112,-0.01360076479613781,-0.14297497272491455,-0.08734621107578278,0.11461120843887329,0.0574609637260437,-0.16773679852485657,-0.025820288807153702,0.01331067644059658,0.010428989306092262,-0.18662966787815094,0.24991723895072937,0.0760996863245964,0.09852190315723419,-0.03905889764428139,-0.06435894221067429,-0.17015881836414337,-0.006608796771615744,-0.07128303498029709,-0.12749604880809784,-0.045451682060956955,-0.2703697979450226,0.32579532265663147,0.012647186405956745,-0.11670713126659393,0.08780092000961304,-0.0035362064372748137,0.02437511458992958,-0.05802664905786514,0.2079775184392929,0.005164020229130983,-0.11795841157436371,0.07206030935049057,0.015506320632994175,0.13279099762439728,0.04746516793966293,0.02693423442542553,0.029824400320649147,0.07665039598941803,-0.1401226967573166,0.10053225606679916,-0.018625391647219658,0.10167144238948822,-0.06777098774909973,0.1432916522026062,-0.07089390605688095,-0.233971506357193,0.08099167048931122,0.03192032501101494,0.0009467943455092609,-0.15517258644104004,-0.005727493204176426,-0.10591483116149902,-0.18025454878807068,0.011791988275945187,-0.12149138003587723,0.06258614361286163,0.055245060473680496,0.05886910483241081,0.0695471540093422,-0.2461830973625183,-0.042509473860263824,0.20711670815944672,0.04535607993602753,-0.05067211017012596,-0.0964304581284523,0.1482965052127838,0.26941463351249695,0.026647288352251053,-0.04135040566325188,-0.09022112190723419,-0.0009066976490430534,0.10454291105270386,0.22803732752799988,-0.01854362152516842,0.1279119849205017,-0.1910465806722641,-0.08387673646211624,-0.19952534139156342,0.06777074187994003,-0.09974502772092819,-0.06523006409406662,-0.08425703644752502,0.05031236633658409,0.21242527663707733,-0.012818371877074242,0.015326222404837608,0.08760710060596466,-0.05039656162261963,0.09573396295309067,-0.14838550984859467,-0.024531492963433266,0.0014846399426460266,-0.19473636150360107,0.0031025384087115526,-0.1428484469652176,-0.19687621295452118,-0.2574554681777954,-0.1956988424062729,-0.016485413536429405,-0.004362773150205612,0.03747864067554474,0.009353335946798325,-0.050705235451459885,-0.08009302616119385,-0.14737695455551147,-0.2119884341955185,-0.23414014279842377,-0.0031375871039927006,-0.0998431071639061,-0.03706982731819153,-0.03975769504904747,-0.08509241789579391,0.051897477358579636,-0.03824777528643608,0.06638951599597931,-0.0031853243708610535,-0.12285540997982025,-0.1437200903892517,0.060773253440856934,0.0443703792989254,-0.11343158781528473,-0.011356496252119541,0.04594124108552933,-0.11815422028303146,-0.1223297044634819,-0.014330240897834301,-0.09637661278247833,-0.006259426008909941,0.007974579930305481,0.00582949910312891,0.027919115498661995,-0.008888333104550838,-0.0018079612636938691,-0.07805502414703369,0.16940341889858246,-0.09665517508983612,-0.0052657644264400005,-0.0010824442142620683,0.09753748029470444,-0.17221546173095703,0.10590751469135284,-0.01941674016416073,0.1644574999809265,0.2631560266017914,-0.20664182305335999,0.06704188138246536,-0.1219080314040184,-0.022296056151390076,-0.05088824778795242,0.10996285825967789,-0.13061413168907166,-0.06822791695594788,0.11518988013267517,0.03194349259138107,-0.03516126424074173,0.20095020532608032,0.12441391497850418,0.10596019774675369,-0.03584619611501694,0.011605413630604744,0.06576913595199585,-0.027316909283399582,0.12395023554563522,0.03660039231181145,0.02766275964677334,0.03471759706735611,0.055236030369997025,0.05033968389034271,0.11804203689098358,0.14121176302433014,0.11506377905607224,0.13795852661132812,-0.001414244994521141,-0.18057259917259216,0.1634037047624588,0.16273649036884308,-0.4936409890651703,-0.2847069203853607,0.16830222308635712,-0.20925568044185638,-0.07374970614910126,0.00043577278847806156,0.09010978043079376,-0.1899685561656952,-0.07285060733556747,0.10624609887599945,-0.04441606253385544,-0.05028337612748146,0.04698287323117256,0.10858964920043945,-0.03419176861643791,0.2893981635570526,0.14432574808597565,-0.0035922452807426453,0.14632976055145264,0.11545621603727341,-0.06389334797859192,0.13371366262435913,0.042615700513124466,0.07383996248245239,0.03816760703921318,0.04732881858944893,-0.09141888469457626,-0.04638446494936943,0.007294758222997189,-0.055523522198200226,0.08107293397188187,0.12812760472297668,0.01730036735534668,0.15695343911647797,0.04180146008729935,-0.11459403485059738,-0.26577091217041016,-0.1021224856376648,0.142774298787117,-0.07870326936244965,-0.09844829887151718,0.06476250290870667,0.12953537702560425,0.0006981875631026924,-0.049387115985155106,-0.1281968057155609,-0.016880467534065247,-0.019331734627485275,-0.02918834798038006,-0.18438969552516937,-0.11581379920244217,-0.007596163544803858,0.33629271388053894,-0.09172696620225906,-0.2266944944858551,0.15085746347904205,0.05570660158991814,0.1660131961107254,-0.17743664979934692,-0.0027725088875740767,0.0008319619228132069,-0.01795879751443863,-0.12331536412239075,0.059381235390901566,-0.14422070980072021,-0.0045255022123456,0.1390138864517212,-0.05381828919053078,-0.019963150843977928,0.014395667240023613,0.17484670877456665,0.22448064386844635,-0.05961226671934128,0.21586129069328308,0.03668496385216713,0.06397198885679245,-0.002565298229455948,0.02161250077188015,-0.24639613926410675,-0.21387597918510437,-0.019966350868344307,-0.11925836652517319,-0.05123678967356682,0.017013059929013252,-0.2050565481185913,-0.1911562979221344,-0.011858983896672726,-0.007077150046825409,0.09243756532669067,-0.20714975893497467,0.20687252283096313,0.06952480226755142,-0.13086755573749542,-0.007822588086128235,0.021646112203598022,-0.16936583817005157,0.10278189182281494,-0.17231349647045135,0.05439356714487076,-0.1828719526529312,-0.06162456050515175,-0.04415569826960564,-0.08139044046401978,-0.020218171179294586,0.061714738607406616,0.11282385885715485,-0.04184834659099579,-0.12627039849758148,0.10074550658464432,-0.06451822072267532,0.00473845424130559,0.09531108289957047,0.04687422141432762,0.007838087156414986,0.01923147775232792,-0.04819834232330322,0.19697967171669006,-0.146743044257164,-0.11470072716474533,0.015891363844275475,-0.19433510303497314,-0.11424069851636887,-0.09575654566287994,-0.1167340949177742,-0.1688116043806076,0.3613396883010864,-0.04760671779513359,-0.14046978950500488,-0.16066928207874298,-0.04904938116669655,0.213552787899971,-0.20401786267757416,0.10324721783399582,-0.10063088685274124,-0.0633251965045929,0.07314055413007736,-0.0902329832315445,-0.23175035417079926,0.092919260263443,-0.07418470829725266,-0.08862555772066116,-0.036401789635419846,0.011625319719314575,0.10195845365524292,0.11788911372423172,0.28408297896385193,0.2601475119590759,0.005577851086854935,0.18614061176776886,-0.028837325051426888,0.04938804358243942,-0.11424343287944794,0.1543273776769638,0.11861775815486908,0.015048849396407604,-0.021900875493884087,0.042216815054416656,-0.1864030510187149,-0.14271755516529083,-0.07458355277776718,-0.2356744408607483,-0.18667083978652954,-0.07960446178913116,-0.19203412532806396,-0.29555293917655945,0.14913113415241241,-0.24710620939731598,-0.29996341466903687,-0.007396646775305271,-0.1281476616859436,0.07729686796665192,-0.09551788121461868,-0.05290320888161659,0.20674580335617065,-0.09189948439598083,-0.026562776416540146,0.10714276880025864,0.04201164096593857,0.046893998980522156,0.021548202261328697,-0.1581631600856781,-0.097273088991642,0.1952020674943924,0.18890796601772308,0.162244975566864,0.08662708103656769,0.02897421084344387,0.021777283400297165,0.08744197338819504,0.11839283257722855,-0.07583984732627869,-0.04075425863265991,-0.04243866726756096,0.020373184233903885,0.029932692646980286,0.031188013032078743,-0.09998297691345215,-0.04229217395186424,0.17475618422031403,-0.09291104227304459,-0.06880047917366028,-0.08069228380918503,-0.07325371354818344,0.025425834581255913,0.0213472880423069,0.17854814231395721,-0.06660515069961548,0.14371712505817413,-0.19056126475334167,-0.07480354607105255,-0.28028249740600586,0.04337222874164581,0.1402771770954132,0.020312681794166565,0.0044867172837257385,-0.18962369859218597,0.032614730298519135,-0.13128763437271118,-0.14794817566871643,-0.08452822268009186,-0.03183832764625549,0.0430888906121254,-0.03184046968817711,0.011517436243593693,0.036316290497779846,0.15484952926635742,0.13575559854507446,0.023203710094094276,0.07144201546907425,0.07757406681776047,0.07197440415620804,-0.040627531707286835,-0.04425758495926857,-0.0807928815484047,-0.02043190971016884,-0.09626874327659607,0.13449953496456146,-0.1758149117231369,-0.15766121447086334,0.005361651536077261,0.015664391219615936,0.039777662605047226,0.06548727303743362,0.056585926562547684,0.02927550859749317,-0.020629175007343292,0.008077699691057205,-0.04783286526799202,0.1583523452281952,0.10838981717824936,-0.12110616266727448,-0.13076812028884888,0.27784156799316406,-0.1585865467786789,-0.07060657441616058,-0.0734439417719841,-0.22759437561035156,-0.017099421471357346,0.026784004643559456,-0.05269203707575798,0.007105976343154907,-0.0005191186792217195,0.024860329926013947,0.15661925077438354,0.0371084026992321,0.2899252474308014,0.2772177457809448,0.13482211530208588,0.30377140641212463,-0.03622124344110489,0.010542850010097027,0.0752280205488205,-0.24897724390029907,0.06395453214645386,-0.05978962406516075,-0.20689402520656586,-0.12372945249080658,0.06054135411977768,0.020887820050120354,-0.04425850138068199,-0.005863117519766092,0.025406671687960625,-0.120606429874897,-0.07844171673059464,-0.14989785850048065,-0.02978072129189968,-0.05907333269715309,-0.2899683117866516,-0.06323593109846115,-0.33101242780685425,0.1794351041316986,-0.32513055205345154,-0.34030190110206604,0.21965070068836212,0.01418648287653923,0.12419997155666351,0.014478047378361225,0.1125626489520073,0.2758532464504242,0.17050069570541382,0.1828593611717224,0.1618221551179886,0.14514252543449402,-0.04218364506959915,-0.12861216068267822,0.036780741065740585,-0.03613625839352608,-0.0131967319175601,0.06855805963277817,-0.09874209016561508,-0.11745990812778473,-0.05498925969004631,-0.008879740722477436,-0.048989493399858475,0.02992217242717743,-0.1689424216747284,-0.11772746592760086,-0.06350398808717728,-0.10669412463903427,0.07576003670692444,-0.10729067772626877,0.15105943381786346,-0.02085976116359234,-0.06105942279100418,-0.1145634576678276,-0.1291133165359497,0.03725806623697281,0.2729254364967346,-0.08577962964773178,0.22208701074123383,-0.06386861205101013,-0.10788597911596298,-0.03437505662441254,-0.039058588445186615,-0.027437007054686546,0.00957550574094057,-0.12229179590940475,0.007295776158571243,-0.07875848561525345,0.19392967224121094,-0.04774681106209755,-0.13302507996559143,0.056880101561546326,-0.16628581285476685,-0.06760528683662415,-0.07832403481006622,-0.372800350189209,-0.42379117012023926,0.14155900478363037,0.0659227967262268,0.01689893752336502,0.23533578217029572,0.13586066663265228,0.06183824688196182,-0.03564606234431267,-0.04051877185702324,-0.03102928027510643,-0.04449297860264778,-0.00968946609646082,-0.2187914103269577,-0.12460854649543762,-0.11208560317754745,-0.2529756426811218,0.004523930139839649,0.09168311208486557,0.02024969831109047,0.08031228929758072,0.03454364836215973,-0.02245149202644825,-0.10558908432722092,-0.1618918925523758,0.05655830353498459,-0.12311162054538727,-0.26238203048706055,-0.06532308459281921,0.206366166472435,-0.018115395680069923,0.025914642959833145,0.018260281533002853,-0.1070883572101593,0.07757945358753204,-0.02600385621190071,-0.01700313203036785,-0.08742456883192062,0.12895721197128296,0.017855828627943993,-0.10532208532094955,0.2781137228012085,-0.04477500915527344,-0.39379003643989563,-0.008946986868977547,-0.2654663026332855,-0.18728458881378174,0.07904171198606491,0.23605090379714966,0.059379056096076965,0.12552078068256378,-0.04107972979545593,-0.040122922509908676,-0.04436781257390976,0.01185652893036604,0.048632729798555374,0.05808771774172783,-0.15907248854637146,-0.10173764079809189,-0.18789993226528168,-0.10261472314596176,0.04299309104681015,-0.11693723499774933,0.1917089968919754,0.20103435218334198,-0.16014890372753143,-0.002562221372500062,-0.22264713048934937,-0.09439926594495773,-0.1739102005958557,0.11918938159942627,0.17697633802890778,-0.17878277599811554,0.18415851891040802,-0.0646962895989418,0.1611204594373703,0.21124450862407684,-0.3565642237663269,0.08741159737110138,-0.16628596186637878,-0.03211510181427002,0.16468952596187592,0.0421515554189682,0.03306538611650467,-0.02437652461230755,0.11913000047206879,0.0035751161631196737,0.07009609043598175,0.09743351489305496,-0.08716064691543579,-0.12155336141586304,0.021487431600689888,-0.08889484405517578,-0.1031574085354805,0.0492568276822567,0.24468505382537842,-0.2799217998981476,0.09882605820894241,-0.12322601675987244,-0.07542183250188828,0.06013132259249687,0.1470954567193985,0.0286007821559906,-0.05027981474995613,0.12901075184345245,-0.22687563300132751,-0.03160615265369415,0.026686452329158783,-0.08565883338451385,0.0445416159927845,0.03457627817988396,-0.0083725331351161,0.039164766669273376,-0.07347115874290466,0.012291431427001953,0.08862423896789551,-0.00497090769931674,-0.11078815907239914,0.02701415680348873,-0.1769883632659912,-0.017558664083480835,-0.08267936110496521,-0.033482130616903305,0.13030263781547546,-0.07805735617876053,0.08872959762811661,0.033628493547439575,-0.012217262759804726,-0.043537672609090805,-0.006035319995135069,-0.10487359762191772,-0.06672566384077072,-0.12415286153554916,-0.09672324359416962,0.15117621421813965,-0.06410820037126541,-0.010699538514018059,-0.19214431941509247,-0.11854539066553116,0.008968274109065533,-0.13921388983726501,-0.16900110244750977,-0.07305789738893509,0.032940518110990524,0.016085561364889145,0.12409728765487671,0.030887972563505173,0.03143864870071411,-0.08400055766105652,-0.14153434336185455,-0.09012924879789352,0.10209338366985321,-0.033158235251903534,0.07509089261293411,-0.05772411450743675,0.12342581897974014,0.06801417469978333,0.07772515714168549,0.23485462367534637,-0.40433886647224426,-0.33027875423431396,0.06508193165063858,-0.14358964562416077,0.032753072679042816,-0.057833824306726456,-0.12871138751506805,0.14199785888195038,-0.1519276350736618,-0.05533136427402496,0.17558002471923828,-0.033583272248506546,-0.07831299304962158,0.04913865774869919,-0.11360334604978561,-0.06231211870908737,-0.03442375734448433,-0.013993678614497185,0.15371307730674744,0.041656021028757095,-0.023004064336419106,0.10434424877166748,0.14007358253002167,0.07681858539581299,0.18808041512966156,-0.03633812442421913,0.048024214804172516,0.11959259957075119,-0.050966378301382065,-0.016077587381005287,0.01930743269622326,0.004158767405897379,-0.11462147533893585,-0.03640389069914818,-0.05363161861896515,-0.14194205403327942,-0.35829704999923706,-0.24617530405521393,0.16069988906383514,-0.17694437503814697,0.056999798864126205,0.13708876073360443,-0.024120669811964035,-0.05982162803411484,0.173483207821846,0.03507106378674507,0.06700858473777771,-0.009835956618189812,-0.09069765359163284,-0.05085044726729393,-0.17591100931167603,-0.012605116702616215,0.11242643743753433,-0.2796275317668915,-0.12333577126264572,-0.10846758633852005,-0.14779916405677795,-0.04726065695285797,0.14137184619903564,0.17188788950443268,-0.010281344875693321,0.272408664226532,0.11701444536447525,0.21946802735328674,0.17718495428562164,0.004431687295436859,0.14907680451869965,0.20905327796936035,0.19391417503356934,-0.008374054916203022,-0.2722417712211609,0.24410399794578552,-0.2401314526796341,-0.02598840743303299,0.1819528192281723,-0.007083291187882423,0.07982127368450165,0.0089783426374197,-0.16168926656246185,0.06649648398160934,-0.03162693977355957,0.030263636261224747,0.10837551206350327,0.08428006619215012,0.09687599539756775,0.14429819583892822,-0.020285334438085556,-0.15678144991397858,-0.023365933448076248,-0.2698519825935364,-0.4033766984939575,0.027310216799378395,0.017034143209457397,-0.11996757984161377,-0.0209322702139616,-0.03218241408467293,0.17154595255851746,0.10762371122837067,0.07031558454036713,0.23357363045215607,-0.011312270537018776,0.12391003966331482,-0.008397044613957405,0.04226331412792206,0.11865849792957306,0.2000032365322113,-0.07393931597471237,-0.14584779739379883,-0.30072036385536194,-0.021138036623597145,0.208334282040596,0.0016855032881721854,0.04533812776207924,-0.07325050979852676,0.03285747393965721,-0.24383409321308136,-0.03514494746923447,-0.07577759027481079,-0.4350954294204712,0.0219547301530838,0.020183516666293144,-0.14279711246490479,-0.15346531569957733,0.13904264569282532,-0.010384534485638142,0.10786407440900803,0.07849429547786713,0.030916327610611916,-0.054987695068120956,0.00870322622358799,0.1235743910074234,0.011392168700695038,-0.1202518567442894,-0.07884515821933746,-0.04431165009737015,-0.09537705034017563,0.0775647759437561,-0.06791067123413086,-0.1530582457780838,0.042465098202228546,-0.1994185447692871,-0.06141113117337227,-0.08379728347063065,-0.4624524414539337,-0.10367231070995331,-0.19706889986991882,-0.05262501910328865,-0.3442750871181488,-0.1901172399520874,-0.006586308591067791,0.21208637952804565,-0.08623895794153214,0.06291373819112778,-0.05988955870270729,-0.020540041849017143,0.15371499955654144,-0.08908867835998535,0.017465367913246155,-0.10295922309160233,0.1394699066877365,-0.004470927640795708,0.0702434778213501,0.03106357902288437,-0.14090190827846527,0.12986408174037933,0.045819010585546494,0.015446281991899014,0.05239971727132797,-0.10098101943731308,-0.12038291990756989,0.025012850761413574,-0.16263701021671295,-0.055556003004312515,0.10034364461898804,-0.08151713758707047,0.012384735979139805,-0.08842219412326813,0.011401803232729435,0.07476319372653961,0.022015146911144257,-0.2291680872440338,-0.04738723114132881,-0.03686760365962982,0.10305388271808624,0.015131776221096516,-0.05584949627518654,0.10102147608995438,-0.01668582856655121,0.06597930938005447,0.022809596732258797,-0.04258810356259346,0.043885089457035065,-0.06495752930641174,-0.10681100934743881,0.13155081868171692,-0.056926608085632324,-0.11472447961568832,-0.037702836096286774,0.0006067879148758948,-0.07430052757263184,0.020816722884774208,0.06165739893913269,-0.05458880588412285,0.07474841922521591,0.2341843843460083,0.16858235001564026,-0.3008829653263092,-0.1794244647026062,0.036678001284599304,0.1013956293463707,0.22432246804237366,-0.05718088150024414,-0.0853208377957344,-0.05656591057777405,0.05281827226281166,-0.12067694962024689,0.14675626158714294,0.06681855767965317,-0.018877767026424408,-0.15727943181991577,-0.036189183592796326,-0.18871046602725983,-0.04231936112046242,0.08502782881259918,0.21981385350227356,-0.053044263273477554,-0.010515587404370308,0.15671829879283905,0.10533700883388519,0.10382448881864548,0.10807456076145172,0.08463908731937408,0.09901557117700577,0.01696493849158287,-0.03635789826512337,0.0704135000705719,0.03325692191720009,0.055257026106119156,0.1424819827079773,-0.26054084300994873,0.0018035619286820292,-0.12351875752210617,0.026906797662377357,-0.0848471000790596,-0.06398236006498337,0.07790664583444595,-0.034954316914081573,0.07376743108034134,-0.031071124598383904,0.05732443556189537,0.10063719749450684,-0.07575723528862,-0.035520341247320175,0.19256630539894104,-0.22200749814510345,-0.14422860741615295,-0.04443943873047829,0.07895311713218689,0.09716422855854034,0.15622510015964508,0.024381713941693306,-0.002783333184197545,-0.04855508729815483,0.255545973777771,0.12826813757419586,-0.04986816644668579,0.07480788230895996,-0.08001348376274109,-0.016981424763798714,-0.1827167272567749,-0.2723355293273926,-0.14566755294799805,0.044710274785757065,-0.0335904061794281,-0.18302106857299805,0.02849484421312809,0.010706044733524323,0.009247678332030773,-0.0461333803832531,0.00661345012485981,-0.1393004208803177,0.011446612887084484,0.03685189411044121,-0.017755664885044098,0.030066264793276787,-0.036655209958553314,0.005764324218034744,0.04046632722020149,0.1392371654510498,0.046798739582300186,-0.022160151973366737,-0.15176238119602203,0.12839028239250183,0.036846041679382324,0.0023306196089833975,0.08441821485757828,-0.06636030972003937,-0.014725323766469955,-0.04632498696446419,-0.22586150467395782,-0.11385888606309891,-0.06408064067363739,0.01006354484707117,-0.14928153157234192,-0.04679802805185318,-0.2228105366230011,-0.24733802676200867,-0.0933828204870224,-0.020063087344169617,0.08288995176553726,-0.09857545047998428,-0.03406713157892227,-0.13479070365428925,0.15991748869419098,0.3640902638435364,-0.08419139683246613,0.11599171906709671,0.4184859097003937,0.3309834897518158,0.12940551340579987,-0.009556864388287067,0.1332135647535324,0.03149668872356415,-0.017758827656507492,-0.06826967746019363,0.11202926933765411,0.08640506863594055,0.08230704069137573,-0.006585970520973206,0.0513298362493515,0.0802871361374855,0.06318093836307526,0.03951434791088104,-0.1685572862625122,-0.13600215315818787,-0.1476319581270218,-0.38085660338401794,-0.05091916024684906,0.04844025522470474,0.19648031890392303,-0.11515951156616211,0.1009901687502861,0.10860029608011246,0.2502201795578003,-0.3718656301498413,-0.13914066553115845,0.11335891485214233,0.08017327636480331,-0.05841197445988655,0.13390754163265228,-0.06756296008825302,0.010660656727850437,-0.12595683336257935,0.13963435590267181,-0.028313715010881424,0.09337329119443893,-0.11738105863332748,-0.1383223831653595,-0.15886040031909943,0.07753215730190277,-0.10337506979703903,-0.1041899174451828,0.16014395654201508,0.14471718668937683,0.1523248553276062,0.18036584556102753,0.09057677537202835,0.15172511339187622,-0.18079248070716858,0.02757802978157997,0.05528487637639046,-0.07136435061693192,-0.13208560645580292,0.026607073843479156,-0.0506439208984375,0.11022409796714783,-0.1274845004081726,-0.16531796753406525,-0.08699794858694077,-0.11604290455579758,0.0534612238407135,-0.03506699949502945,-0.04723229631781578,-0.09558369964361191,-0.08900971710681915,0.09587844461202621,0.04770214483141899,0.07867463678121567,0.0965953916311264,0.05548515543341637,0.09014803171157837,0.013088870793581009,-0.17873746156692505,-0.34367311000823975,-0.05129687115550041,-0.19841009378433228,-0.23600898683071136,-0.08415496349334717,0.2235875427722931,0.045541029423475266,0.059216346591711044,0.08847139030694962,-0.06860355287790298,0.06210242584347725,0.0943886935710907,-0.034497763961553574,0.011790730059146881,-0.15120823681354523,-0.12878204882144928,-0.14598223567008972,-0.0206231027841568,0.16370877623558044,0.08006804436445236,0.04759148508310318,0.17294122278690338,0.09830746799707413,0.16033920645713806,0.06479739397764206,0.11270181089639664,0.05983596295118332,-0.1162622943520546,0.0575568713247776,0.02432180568575859,-0.20742014050483704,-0.144596129655838,-0.1980944275856018,-0.09004908055067062,0.007049896288663149,0.04201124608516693,-0.1316671371459961,-0.04648037999868393,-0.0029531465843319893,-0.026566043496131897,0.05421411618590355,-0.19174128770828247,-0.270807147026062,-0.18876539170742035,-0.03150881081819534,0.001213675132021308,-0.05928952246904373,0.041594065725803375,0.17829610407352448,-0.020682713016867638,-0.14323963224887848,0.017073528841137886,0.07594987750053406,-0.04420195519924164,0.029677756130695343,-0.06279086321592331,0.11352186650037766,0.2058534026145935,0.16553924977779388,-0.02555372752249241,0.05660080164670944,0.05953701585531235,-0.030743440613150597,0.06747018545866013,-0.03687839210033417,0.009105518460273743,0.08767954260110855,0.07734424620866776,0.18495140969753265,-0.050529204308986664,-0.05065741017460823,0.05990979075431824,0.047755930572748184,-0.15414367616176605,-0.020155033096671104,-0.0024981414899230003,-0.01564263179898262,0.010929189622402191,0.042222678661346436,0.15254612267017365,-0.043977707624435425,0.12926386296749115,0.022005248814821243,-0.14145785570144653,0.1978331208229065,-0.11264314502477646,-0.2812037467956543,0.006385195534676313,0.03754517063498497,0.0863972008228302,0.004324240610003471,-0.22259658575057983,0.030741609632968903,0.19329281151294708,-0.03175879642367363,0.12188439816236496,-0.0096275070682168,-0.14753064513206482,-0.17511539161205292,-0.05087677016854286,0.13908055424690247,-0.028479576110839844,-0.18989452719688416,0.013297882862389088,-0.007232005707919598,-0.230806365609169,-0.08564659208059311,0.09173595905303955,0.020326318219304085,-0.07286448776721954,0.03408641740679741,0.21587035059928894,0.014215693809092045,-0.14311100542545319,0.12454469501972198,-0.06412329524755478,0.06956219673156738,-0.21855241060256958,-0.008535023778676987,-0.021990397945046425,0.029428614303469658,0.13162849843502045,0.006552120670676231,0.1331130713224411,0.025565994903445244,0.1419152319431305,-0.030065782368183136,0.09385179728269577,0.019062615931034088,-0.20631343126296997,0.012272623367607594,0.01623876579105854,-0.1412871778011322,-0.02685823291540146,-0.059630442410707474,-0.5753358602523804,-0.09114891290664673,-0.600975513458252,-0.4900854527950287,0.20457139611244202,-0.18979087471961975,-0.028537055477499962,-0.12677890062332153,0.07976458221673965,0.1361093819141388,-0.12455514073371887,0.045370589941740036,-0.05388138070702553,-0.019676093012094498,-0.09143797308206558,0.023573456332087517,-0.15242899954319,-0.06615643203258514,-0.053014904260635376,-0.0874217301607132,-0.22122007608413696,-0.12410999089479446,0.07744714617729187,-0.02879030816257,-0.12980122864246368,-0.002290144329890609,0.04749532416462898,0.12931939959526062,-0.04561712592840195,0.06606030464172363,0.044128891080617905,-0.054932449012994766,0.13616855442523956,0.029622254893183708,0.08564814925193787,-0.13521194458007812,-0.11217966675758362,-0.07682622969150543,-0.16645048558712006,0.22831954061985016,-0.1601618379354477,0.0018237928161397576,-0.03799234703183174,-0.17826512455940247,0.06952816247940063,-0.11008842289447784,0.06083977594971657,0.17400731146335602,-0.1662435084581375,-0.04702691733837128,-0.12484607845544815,-0.06520642340183258,0.020539501681923866,-0.028031757101416588,-0.09594117105007172,-0.0786171406507492,-0.1127723678946495,0.02529442124068737,-0.09541670233011246,-0.040003418922424316,0.12388551980257034,0.03278534859418869,-0.1032666340470314,0.004155096597969532,0.011746158823370934,-0.16965632140636444,-0.1318250298500061,-0.014165086671710014,-0.04534115642309189,0.025223582983016968,0.048198163509368896,0.13944391906261444,0.010236764326691628,0.11432385444641113,-0.008606075309216976,-0.19405578076839447,-0.13540470600128174,-0.08502325415611267,-0.11627145111560822,0.09615453332662582,-0.006402269471436739,-0.1485818773508072,0.027948075905442238,0.03227889910340309,-0.10940760374069214,0.05141200125217438,0.16483189165592194,0.05510921776294708,-0.006274413783103228,0.1487261950969696,0.09132975339889526,-0.06358423084020615,-0.0803612470626831,-0.23924697935581207,0.17512916028499603,0.02951887622475624,-0.028250033035874367,0.1007838249206543,0.18601739406585693,-0.026527894660830498,0.022592995315790176,0.11845981329679489,-0.07912875711917877,-0.08693962544202805,0.1395850032567978,0.00968963373452425,0.1725320965051651,-0.03622562065720558,-0.12330803275108337,-0.05400211364030838,-0.1326131969690323,0.029357310384511948,-0.1630210429430008,-0.22426040470600128,-0.12934070825576782,-0.06757506728172302,-0.1114545613527298,-0.01256272941827774,0.15387655794620514,0.16647255420684814,0.013287314213812351,0.17729045450687408,0.019737370312213898,-0.07090132683515549,-0.09214191883802414,0.12131592631340027,0.01958499662578106,0.052636489272117615,0.02590256929397583,0.0329572968184948,-0.08797642588615417,-0.015922904014587402,0.15445172786712646,0.13049863278865814,0.02081899717450142,-0.03490656614303589,-0.07458190619945526,0.05324486270546913,-0.016872519627213478,0.056201040744781494,0.007171874400228262,-0.059414688497781754,-0.15017758309841156,-0.002965700812637806,0.08004903793334961,0.13647542893886566,-0.07483652234077454,-0.20424114167690277,0.04474623128771782,0.028986545279622078,-0.08699722588062286,0.031244143843650818,0.07477323710918427,0.052260011434555054,-0.28339245915412903,0.17556220293045044,-0.11951064318418503,0.06692834943532944,-0.04888986423611641,0.17729724943637848,-0.189053475856781,0.08023606985807419,0.06984837353229523,0.1180441752076149,0.07982417941093445,0.004771112464368343,0.061759233474731445,0.22407999634742737,0.11617933958768845,-0.009773166850209236,-0.18879513442516327,-0.03718696907162666,-0.16120702028274536,-0.27947163581848145,-0.19627557694911957,-0.030938195064663887,-0.18119840323925018,-0.026327813044190407,0.10645823180675507,-0.040858108550310135,0.15084324777126312,-0.014284372329711914,0.14496518671512604,-0.11166074126958847,0.18414650857448578,0.03668735921382904,-0.026719115674495697,-0.06568093597888947,0.06974334269762039,-0.07084953784942627,0.22074532508850098,0.032646097242832184,0.06928634643554688,0.04106204956769943,0.08851777017116547,0.14681339263916016,0.1191752627491951,-0.1020599827170372,0.04601935297250748,0.10378540307283401,-0.013711990788578987,-0.07248369604349136,0.07038155943155289,0.12190414220094681,0.08354385197162628,0.20869606733322144,-0.13964688777923584,-0.2999677062034607,0.23360173404216766,-0.4972008466720581,-0.4912337362766266,-0.054027821868658066,-0.1664528250694275,0.14074964821338654,0.3124978244304657,0.03262454643845558,-0.005989271216094494,-0.05613546073436737,-0.1555296927690506,0.04580199718475342,-0.14078731834888458,0.0772210881114006,0.0019611846655607224,0.08162528276443481,-0.043402403593063354,0.0850648283958435,0.138528510928154,0.04923594370484352,0.14261625707149506,0.07188296318054199,-0.06801120191812515,-0.0444929376244545,0.15972670912742615,0.08659764379262924,-0.011962744407355785,-0.05716118589043617,0.038331177085638046,-0.07710760086774826,0.09673946350812912,-0.008783722296357155,-0.0984916165471077,0.018570158630609512,-0.20144446194171906,-0.10815116763114929,-0.052697546780109406,0.24148130416870117,-0.22523538768291473,-0.0771394744515419,-0.14191637933254242,-0.01951494999229908,0.027103522792458534,0.053987789899110794,-0.07109381258487701,-0.057240284979343414,0.12795250117778778,-0.09835994243621826,0.232909694314003,-0.15852835774421692,0.037514492869377136,-0.053624335676431656,-0.02975921332836151,-0.0386483371257782,0.06779936701059341,-0.1614292562007904,-0.10446500778198242,0.14714160561561584,-0.10394874960184097,0.006243078503757715,-0.02234395034611225,0.2015133649110794,0.09920027107000351,0.02220972254872322,-0.27197617292404175,-0.1894383579492569,-0.12620055675506592,-0.2397266924381256,0.12379423528909683,0.027494726702570915,0.013582526706159115,0.1337958723306656,-0.08800482749938965,0.11585994064807892,0.0588759146630764,0.1368701159954071,-0.015347776934504509,-0.08256499469280243,-0.1903657168149948,0.03517819941043854,0.18735764920711517,0.022850893437862396,-0.037637386471033096,-0.2856653928756714,-0.31138312816619873,-0.5246147513389587,0.061376526951789856,0.05884191393852234,-0.16348236799240112,0.004282035399228334,0.006226420868188143,0.017026858404278755,0.05498325824737549,0.1250171661376953,0.11497988551855087,-0.08599946647882462,0.14561626315116882,0.12328825891017914,0.18294712901115417,0.004144785460084677,0.15587544441223145,0.011869337409734726,0.01480634231120348,0.03947664797306061,0.028269534930586815,-0.04952600225806236,0.1735159307718277,0.08899246156215668,0.08179417997598648,-0.023664262145757675,-0.26471996307373047,-0.0010479416232556105,0.012330603785812855,-0.024697458371520042,-0.13218122720718384,-0.011020397767424583,-0.03362008556723595,0.10999276489019394,-0.08281085640192032,-0.1054864451289177,-0.04785032942891121,-0.036623261868953705,-0.08330698311328888,-0.04302166774868965,0.0991012454032898,0.0281987264752388,0.07643011957406998,0.1269863247871399,0.11608542501926422,0.07428441941738129,-0.004973064176738262,0.1558789759874344,-0.04598471149802208,-0.008480526506900787,-0.07762733846902847,-0.056989189237356186,-0.14791688323020935,0.0749516487121582,0.03593803197145462,-0.12464931607246399,0.01794390194118023,-0.11636579781770706,-0.004529175348579884,-0.09585559368133545,0.06873945891857147,-0.33081331849098206,-0.11311890184879303,-0.09296092391014099,-0.33801859617233276,0.03832496702671051,0.08166741579771042,0.4532449245452881,0.3070591390132904,0.23662208020687103,-0.12234730273485184,-0.6873037815093994,-0.3706117570400238,0.19104741513729095,0.1808382272720337,-0.34567874670028687,0.2371523380279541,0.18511107563972473,0.22390252351760864,0.051169026643037796,0.06760276108980179,-0.00028810827643610537,-0.01707805134356022,0.23859837651252747,0.08408384770154953,-0.09767584502696991,-0.13748449087142944,0.033182673156261444,-0.1011761799454689,-0.016206098720431328,-0.11752458661794662,-0.1404750496149063,-0.05361295863986015,0.08302638679742813,-0.0030293057207018137,-0.009847824461758137,-0.12154103070497513,-0.01750325970351696,-0.02291802316904068,-0.1215236559510231,-0.06511422991752625,0.148515984416008,0.05367037281394005,-0.2961132228374481,-0.13697507977485657,-0.07811259478330612,-0.03940635919570923,-0.08710090070962906,-0.1451641470193863,0.1272878646850586,0.19132280349731445,0.14369697868824005,-0.11306598782539368,0.26596447825431824,-0.03099999390542507,-0.07525824755430222,0.003936516586691141,-0.08702293783426285,0.02797258459031582,-0.0639478862285614,-0.14178824424743652,0.007897410541772842,-0.17774830758571625,-0.05476421117782593,0.03861117362976074,-0.08555728197097778,-0.0450049452483654,-0.05022793263196945,0.12123001366853714,0.030426913872361183,0.05032631754875183,-0.006037216633558273,0.011296975426375866,-0.14337332546710968,0.1182701587677002,0.002870829775929451,0.09631869196891785,-0.02948392927646637,0.10484078526496887,-0.11158949881792068,-0.1938568502664566,-0.08610221743583679,-0.1750383824110031,-0.07482554018497467,-0.03188278153538704,0.07117120921611786,0.12767276167869568,0.08477254956960678,0.0653548389673233,-0.11722559481859207,0.1774808168411255,0.1227353885769844,0.026731392368674278,-0.11925315856933594,0.15112480521202087,0.16086775064468384,-0.21733738481998444,0.005913774017244577,-0.08952194452285767,0.06248392164707184,-0.010502398945391178,0.16894516348838806,0.006694316398352385,0.06385239958763123,0.0028910418041050434,-0.0356823168694973,-0.05371692031621933,-0.01259353756904602,-0.021998461335897446,-0.17665007710456848,0.009977121837437153,-0.07596754282712936,0.014038640074431896,-0.0756240263581276,0.062198705971241,-0.0870538279414177,-0.0043893433175981045,0.17623892426490784,-0.043269265443086624,0.06364495307207108,-0.03867387771606445,-0.10311891883611679,-0.14887405931949615,0.0871492251753807,-0.009818457998335361,-0.23393119871616364,-0.12031694501638412,0.03327006474137306,-0.02185770310461521,-0.04964688420295715,-0.1711949110031128,-0.08207274973392487,-0.08451664447784424,0.041787613183259964,0.05045361444354057,0.019619649276137352,-0.038169875741004944,-0.0020920964889228344,0.034954965114593506,0.0637231320142746,0.05510205775499344,0.188236266374588,-0.01872204802930355,-0.016897395253181458,-0.1453917920589447,0.11197831481695175,0.07823362201452255,-0.028024841099977493,0.04604512080550194,0.27065345644950867,0.1986636072397232,0.006617382634431124,-0.1000356525182724,0.017213931307196617,-0.013873272575438023,0.045203376561403275,0.027585120871663094,0.007612943649291992,-0.11688289046287537,0.042424626648426056,-0.10713815689086914,-0.12861564755439758,-0.010446653701364994,-0.0035292578395456076,-0.002194430213421583,0.007485068403184414,0.24358287453651428,0.10161155462265015,-1.5014680684544146e-05,-0.17133620381355286,-0.030693022534251213,-0.011756676249206066,0.05609686300158501,0.014647349715232849,-0.008661281317472458,0.00013481646601576358,0.06755658239126205,0.0903162956237793,0.12237033247947693,0.010025326162576675,-0.19449664652347565,0.03237934783101082,-0.039294540882110596,-0.03552595525979996,0.0030703439842909575,-0.08142802864313126,-0.11714476346969604,0.0557558499276638,-0.11351422965526581,-0.09277734160423279,0.016781901940703392,0.10109172761440277,-0.048727795481681824,-0.18941938877105713,-0.01745552383363247,0.041464656591415405,-0.001145031419582665,-0.1151222363114357,0.02723754569888115,0.0580487921833992,-0.14001168310642242,-0.0034281534608453512,0.05114378780126572,-0.023505037650465965,-0.0895375981926918,0.13399554789066315,0.07656636834144592,0.12427247315645218,-0.08268976211547852,0.023572051897644997,-0.2256070375442505,-0.1105857864022255,-0.1817508190870285,0.10167737305164337,0.008783968165516853,-0.10442288219928741,0.05327560007572174,-0.029602283611893654,0.03569460287690163,-0.02803688310086727,-0.10197406262159348,0.03896864876151085,-0.05920279771089554,0.10430022329092026,0.018500447273254395,-0.16215361654758453,-0.14378134906291962,-0.1369294375181198,-0.06402590125799179,0.011483076959848404,0.12247370928525925,0.18040412664413452,0.23895879089832306,-0.07872503995895386,0.15066522359848022,0.24419604241847992,0.05860133469104767,-0.059035446494817734,-0.016529234126210213,0.21835260093212128,-0.04343317076563835,0.13443614542484283,-0.06333763897418976,0.05072600767016411,-0.04586907848715782,0.14615990221500397,0.09100925177335739,-0.12150342017412186,0.05582904443144798,0.1099899411201477,-0.023923644796013832,-0.02287115715444088,0.12406738102436066,-0.05320102348923683,0.028177812695503235,0.10607723891735077,0.1349412202835083,-0.1336134523153305,0.04588183015584946,0.13034912943840027,0.024179978296160698,-0.15496177971363068,-0.02141488529741764,0.015024064108729362,-0.03724399954080582,-0.03373076021671295,0.06491480022668839,0.1902822107076645,0.012839234434068203,-0.05203535780310631,-0.052159085869789124,-0.05486933887004852,-0.01420646719634533,-0.08903157711029053,-0.1898890733718872,-0.2055000364780426,-0.04991885647177696,0.007271135225892067,0.09549174457788467,0.040298253297805786,0.15043991804122925,0.2181321680545807,0.03220970556139946,-0.17867276072502136,-0.17188817262649536,-0.044148966670036316,-0.02439858578145504,-0.21490001678466797,-0.02316516824066639,0.09189453721046448,-0.021881507709622383,-0.14896559715270996,0.1374478042125702,0.09975963085889816,0.00940970703959465,-0.044717930257320404,-0.021956464275717735,0.12881126999855042,0.15272001922130585,-0.051894914358854294,0.07238118350505829,-0.02161450684070587,-0.05726265534758568,-0.07867543399333954,0.1101183146238327,0.004867856856435537,-0.020899418741464615,0.025589924305677414,-0.13268236815929413,0.07191476970911026,-0.03891923278570175,-0.16177386045455933,0.02109047770500183,-0.07372825592756271,0.06796468794345856,0.030539434403181076,0.03505925461649895,-0.017698045819997787,0.07084403187036514,-0.22041024267673492,-0.07949913293123245,-0.1022898256778717,-0.11295875161886215,0.08102988451719284,-0.02759254351258278,0.11529089510440826,-0.01560879871249199,-0.028462378308176994,-0.06384970247745514,0.10659929364919662,-0.08994491398334503,0.07857026159763336,0.13344797492027283,-0.14401587843894958,-0.1048513874411583,0.12872333824634552,0.060923755168914795,-0.1776469349861145,0.10166794061660767,0.14292792975902557,-0.11141502857208252,-0.10913439840078354,-0.0957806184887886,0.027711400762200356,-0.2756478190422058,0.10902877151966095,0.19895456731319427,-0.16933052241802216,-0.06759756058454514,0.04448647424578667,0.07085032016038895,0.023996945470571518,-0.16705574095249176,0.028543543070554733,-0.06094752624630928,-0.1989728808403015,-0.1196913868188858,-0.13117320835590363,0.058552004396915436,-0.03543074056506157,-0.0045538535341620445,0.05813919007778168,0.22896389663219452,0.026251450181007385,0.0670049861073494,0.160347118973732,0.1463041603565216,0.08726901561021805,0.024471508339047432,0.09430664777755737,0.044535521417856216,0.011892550624907017,-0.12497276812791824,0.029588647186756134,0.10442309826612473,0.13978897035121918,0.010088694281876087,0.09109590947628021,-0.018323739990592003,0.13573257625102997,0.009282954037189484,-0.1070633977651596,0.14037813246250153,-0.1892833262681961,-0.0668308436870575,-0.09990298748016357,-0.21072615683078766,-0.2263122946023941,0.11775736510753632,-0.17765288054943085,-0.0492599718272686,-0.0011179088614881039,0.12767444550991058,-0.014524752274155617,0.009765834547579288,0.12355335801839828,-0.0392010472714901,0.04169539734721184,-0.020971162244677544,0.007757724728435278,-0.2527434229850769,0.17980334162712097,0.05946160852909088,0.012653345242142677,0.011874453164637089,0.01677030511200428,0.2326965630054474,0.1296520084142685,-0.036956965923309326,0.05168116092681885,-0.13525114953517914,-0.15749189257621765,0.1901218593120575,0.14189490675926208,0.11416888982057571,0.23650462925434113,0.29715269804000854,0.20165690779685974,0.1356864869594574,0.066722072660923,-0.11595133692026138,-0.13885065913200378,-0.1013297513127327,0.10279937833547592,0.0015775080537423491,-0.13039977848529816,-0.03765092045068741,0.13808904588222504,-0.14977316558361053,-0.111354298889637,0.02749302051961422,0.21859703958034515,-0.10182306170463562,0.03097093105316162,0.1652253121137619,0.056871719658374786,-0.22271345555782318,-0.23774801194667816,0.00801472831517458,-0.09893595427274704,0.06309500336647034,-0.21491806209087372,-0.03503735736012459,-0.12238564342260361,-0.018596988171339035,-0.21600456535816193,0.03390581160783768,-0.0788390040397644,-0.017730223014950752,-0.06234659627079964,-0.0017402514349669218,-0.11151427030563354,-0.006564064417034388,-0.10176431387662888,-0.05171778425574303,-0.10003487765789032,0.03705599159002304,0.12485840916633606,-0.20767736434936523,0.0839262381196022,0.09154367446899414,-0.1425802856683731,0.1490776687860489,0.22331710159778595,-0.25161126255989075,-0.09937219321727753,-0.15293525159358978,-0.09073438495397568,0.09629888087511063,-0.06703530997037888,-0.0449519120156765,0.268966943025589,0.21786442399024963,-0.13693900406360626,-0.029188401997089386,-0.2602364122867584,-0.20273233950138092,-0.23295958340168,0.2220402956008911,-0.016839170828461647,-0.12251400202512741,0.004615297541022301,-0.06462975591421127,0.16305162012577057,0.06618687510490417,-0.12021579593420029,-0.13024254143238068,0.12736615538597107,-0.10419005155563354,0.014055491425096989,-0.002636580727994442,-0.07090596109628677,0.014009264297783375,0.16206368803977966,-0.20375363528728485,-0.043160080909729004,0.06234470754861832,-0.09130112081766129,0.021976683288812637,0.04390784353017807,0.13527098298072815,0.11981558054685593,-0.03390292078256607,0.0677066296339035,0.214041605591774,0.03155257925391197,0.0683281272649765,0.1126391813158989,0.12210649251937866,0.03178193047642708,0.13600033521652222,0.061058979481458664,0.026317952200770378,-0.013926960527896881,0.058170247822999954,-0.13513219356536865,-0.024478448554873466,0.11326321214437485,-0.06190779060125351,-0.006474960595369339,0.03760300204157829,-0.373757541179657,-0.05846736207604408,-0.1418842375278473,-0.10023824870586395,0.11174368858337402,0.08837729692459106,-0.18001873791217804,0.03571297973394394,0.11597732454538345,0.0783996731042862,0.36223897337913513,-0.08284131437540054,0.05334324389696121,0.08784741163253784,0.01640401966869831,0.0925702229142189,0.12420294433832169,-0.028805473819375038,-0.13842050731182098,-0.058269500732421875,0.2209150791168213,-0.0910327285528183,0.08390451222658157,0.022883567959070206,0.027241816744208336,-0.06400226801633835,-0.029130728915333748,-0.1742640882730484,-0.052722372114658356,0.1120317354798317,-0.0700158178806305,0.04913213476538658,-0.20097799599170685,-0.056822769343853,0.005912364926189184,0.08921691030263901,-0.03704177960753441,0.11520244181156158,0.03339719399809837,-0.16669432818889618,-0.052063509821891785,0.0805528461933136,0.20752936601638794,0.055510248988866806,-0.006833049468696117,-0.020202260464429855,0.085933156311512,0.020543880760669708,-0.02758731134235859,-0.07905939221382141,-0.014485221356153488,0.09898689389228821,-0.04211636632680893,-0.020780550315976143,-0.11080323904752731,-0.052842117846012115,0.02577991969883442,-0.10347246378660202,-0.039766520261764526,0.13371305167675018,0.014267092570662498,-0.07435397058725357,-0.15847693383693695,0.07825322449207306,0.014738856814801693,0.05680251121520996,-0.026434270665049553,0.12127529829740524,-0.09647396951913834,0.16758382320404053,-0.060345642268657684,0.10934121161699295,0.13450820744037628,0.03947227820754051,0.18078117072582245,0.25074875354766846,0.14421409368515015,-0.055262427777051926,0.0892842635512352,0.08210810273885727,-0.19536317884922028,-0.5171737670898438,-0.1191653460264206,-0.33331331610679626,-0.5663384795188904,-0.015637030825018883,0.05024169757962227,-0.25429144501686096,-0.1103445291519165,-0.07053657621145248,-0.24821704626083374,-0.16765446960926056,-0.15656208992004395,-0.13968601822853088,0.20519967377185822,-0.0349365696310997,0.11664529144763947,0.1536485105752945,0.02268148399889469,-0.16421830654144287,-0.1623622626066208,-0.09510530531406403,-0.191204234957695,-0.11517421156167984,0.12869758903980255,-0.01944124698638916,0.001594705623574555,0.07432331889867783,0.025415997952222824,0.06210995838046074,0.019771404564380646,-0.05564267560839653,0.21614180505275726,0.010096601210534573,0.016350021585822105,-0.18730758130550385,-0.14508406817913055,-0.20058898627758026,-0.13403795659542084,-0.10393306612968445,-0.027426620945334435,0.12918786704540253,-0.008724895305931568,-0.15925970673561096,-0.07330963015556335,0.19059015810489655,-0.06719283759593964,-0.11109334230422974,0.21479353308677673,-0.01864306814968586,0.04170620068907738,-0.02449171617627144,0.2116740196943283,0.020465480163693428,-0.04025615379214287,-0.36643552780151367,-0.07974915951490402,-0.01722085475921631,-0.39191803336143494,-0.07100916653871536,0.09202263504266739,-0.00417972169816494,0.0037693106569349766,0.07556229829788208,-0.1626540571451187,0.10536353290081024,0.034371793270111084,0.03752579167485237,-0.02361513115465641,-0.15786632895469666,0.015240274369716644,0.03329254686832428,-0.27599433064460754,-0.375021368265152,0.12649090588092804,-0.14695753157138824,-0.15417909622192383,-0.2675565183162689,0.020335091277956963,0.002262725727632642,-0.04215226694941521,0.03666916862130165,0.11814012378454208,0.10356957465410233,0.15225985646247864,0.04765951633453369,0.024004099890589714,0.028786078095436096,-0.09536375850439072,0.042457569390535355,0.005033374298363924,-0.04302598908543587,0.10739564895629883,0.030512092635035515,-0.10937947034835815,0.05815892666578293,0.1268884837627411,-0.09694737195968628,0.043048396706581116,-0.19739721715450287,-0.18661509454250336,-0.18835359811782837,-0.14179003238677979,-0.10684343427419662,-0.10500869899988174,-0.01413701195269823,-0.052993860095739365,-0.11947634816169739,-0.09069955348968506,-0.08007247000932693,0.1612669825553894,0.043056149035692215,-0.006455535069108009,0.097870834171772,0.08904743194580078,0.05129063501954079,0.15280850231647491,-0.021092824637889862,-0.028089959174394608,-0.054140396416187286,-0.09271328151226044,-0.04438504949212074,-0.0427672415971756,0.05137654021382332,0.05201726034283638,0.09584563225507736,0.18678222596645355,0.013674628920853138,-0.04689166322350502,0.09685373306274414,-0.06562970578670502,0.13181480765342712,0.04026360064744949,0.0656934604048729,0.05892794579267502,-0.1721511334180832,-0.10970669239759445,0.012976723723113537,-0.08737087994813919,-0.19953271746635437,-0.11555325239896774,0.009469454176723957,0.09367813915014267,0.016552509739995003,0.013871092349290848,-0.1333770453929901,-0.1443161815404892,0.041890211403369904,-0.07095760107040405,0.08444175869226456,-0.045328062027692795,0.04634290188550949,0.18404676020145416,0.00016505064559169114,0.12949910759925842,0.15620799362659454,0.0458478145301342,0.04188721626996994,-0.1332421749830246,-0.08970853686332703,0.08534594625234604,0.0866723358631134,-0.0001990082091651857,0.08641030639410019,-0.12075817584991455,0.1991119384765625,0.17279937863349915,0.00938833225518465,-0.030651826411485672,-0.018571756780147552,0.045386459678411484,-0.09185649454593658,-0.11751511693000793,-0.11706690490245819,-0.1514146327972412,-0.15437261760234833,-0.042317572981119156,-0.011223980225622654,-0.0273583997040987,0.0630890354514122,0.036379504948854446,0.04674840718507767,0.26928627490997314,-0.04266249015927315,-0.0971616879105568,-0.00020075716020073742,0.15559545159339905,-0.08124341070652008,-0.34375688433647156,-0.12031111121177673,0.1470135897397995,-0.05251769348978996,-0.001331767300143838,0.12185671925544739,0.18697796761989594,-0.10549893975257874,0.09355851262807846,0.058576468378305435,-0.11884355545043945,0.14972563087940216,0.3282838761806488,0.11278007179498672,-0.1622740924358368,0.0770915225148201,0.11118309944868088,-0.13412559032440186,-0.330066055059433,0.1324331909418106,-0.168050155043602,0.011889019049704075,0.08588216453790665,0.04550439864397049,0.10097386687994003,-0.0006078908336348832,-0.08591806143522263,0.014730282127857208,-0.10935530066490173,0.015162084251642227,0.12951724231243134,-0.178939089179039,-0.12864570319652557,0.03250504285097122,-0.13479965925216675,0.1851271688938141,-0.01963072083890438,0.0782797709107399,-0.06403547525405884,0.07712097465991974,-0.0392562597990036,0.11641748994588852,0.16775329411029816,0.05847272276878357,-0.0006138088647276163,0.023613695055246353,-0.024745101109147072,0.11428937315940857,0.03477533534169197,-0.4209318459033966,-0.12602059543132782,0.057935964316129684,0.027676336467266083,0.0781460776925087,-0.2951449751853943,0.08476857095956802,0.06566964089870453,-0.006594293285161257,0.044437192380428314,-0.012008802965283394,0.033430393785238266,-0.13286592066287994,0.08293255418539047,0.104215607047081,-0.3964309096336365,-0.03679010272026062,-0.0995262861251831,-0.3026200234889984,0.03635011613368988,0.05048295855522156,-0.3426937460899353,-0.11684680730104446,0.20076625049114227,-0.059737104922533035,-0.03171952813863754,-0.12631021440029144,-0.13847124576568604,0.08354490995407104,0.10570596903562546,-0.02648479864001274,-0.04802156612277031,0.045232225209474564,0.17028334736824036,0.15723490715026855,0.3392704427242279,-0.09413041174411774,0.08216149359941483,0.17133618891239166,0.1277589201927185,-0.23506806790828705,-0.2571690082550049,0.1592777520418167,0.056338563561439514,0.09690558910369873,-0.13866649568080902,0.018447965383529663,0.05987817794084549,0.059780869632959366,0.18450668454170227,0.11194666475057602,0.003925880882889032,0.12478409707546234,0.060022179037332535,-0.2663106620311737,-0.13007225096225739,-0.11074445396661758,-0.045260533690452576,0.07873005419969559,0.05212041735649109,0.04769385978579521,0.015927648171782494,-0.07427559792995453,-0.051028747111558914,-0.07705245167016983,0.15356439352035522,0.008395727723836899,-0.2580982744693756,-0.006952501367777586,-0.0197261031717062,-0.09109481424093246,0.014749712310731411,0.08123893290758133,-0.035201020538806915,-0.06411430984735489,0.016176948323845863,0.01326284371316433,0.047664105892181396,0.14400632679462433,0.1152116060256958,0.08797423541545868,0.05338190868496895,0.06207145377993584,0.3466627597808838,0.21369647979736328,-0.03153344988822937,0.20868106186389923,-0.1335897296667099,0.04444753751158714,-0.07625895738601685,-0.04477982595562935,-0.042842429131269455,0.0326976403594017,0.02564329467713833,0.0006860642461106181,0.0018928303616121411,0.15649117529392242,-0.01721194013953209,0.11094387620687485,-0.04496754705905914,0.1523004174232483,-0.15058617293834686,-0.10547367483377457,0.020963095128536224,-0.050329357385635376,0.1482018381357193,0.10875243693590164,0.034839872270822525,-0.08246517181396484,0.005378793925046921,-0.1998165249824524,0.06846541166305542,-0.11676401644945145,-0.17060475051403046,-0.06378481537103653,-0.04825989902019501,-0.13675102591514587,0.07963541895151138,-0.10100996494293213,0.09522596001625061,0.17764683067798615,-0.06862428784370422,0.11773119866847992,0.047437526285648346,-0.16412226855754852,-0.13295286893844604,-0.14544042944908142,0.0926256775856018,-0.09981366246938705,-0.11214414983987808,0.07374511659145355,0.03891339898109436,0.22145509719848633,